digraph Tree {
node [shape=box] ;
0 [label="X[34] <= 1.5\ngini = 0.368\nsamples = 3327\nvalue = [2519, 808]"] ;
1 [label="X[22] <= 11975.0\ngini = 0.252\nsamples = 1981\nvalue = [1688, 293]"] ;
0 -> 1 [labeldistance=2.5, labelangle=45, headlabel="True"] ;
2 [label="X[69] <= 8.5\ngini = 0.382\nsamples = 600\nvalue = [446, 154]"] ;
1 -> 2 ;
3 [label="X[86] <= 86.5\ngini = 0.278\nsamples = 383\nvalue = [319, 64]"] ;
2 -> 3 ;
4 [label="X[22] <= 11800.0\ngini = 0.118\nsamples = 175\nvalue = [164, 11]"] ;
3 -> 4 ;
5 [label="X[9] <= 0.052\ngini = 0.099\nsamples = 173\nvalue = [164, 9]"] ;
4 -> 5 ;
6 [label="X[49] <= 75.5\ngini = 0.444\nsamples = 3\nvalue = [1, 2]"] ;
5 -> 6 ;
7 [label="gini = 0.0\nsamples = 2\nvalue = [0, 2]"] ;
6 -> 7 ;
8 [label="gini = 0.0\nsamples = 1\nvalue = [1, 0]"] ;
6 -> 8 ;
9 [label="X[57] <= 459.0\ngini = 0.079\nsamples = 170\nvalue = [163, 7]"] ;
5 -> 9 ;
10 [label="gini = 0.0\nsamples = 1\nvalue = [0, 1]"] ;
9 -> 10 ;
11 [label="X[86] <= -1.5\ngini = 0.068\nsamples = 169\nvalue = [163, 6]"] ;
9 -> 11 ;
12 [label="gini = 0.0\nsamples = 1\nvalue = [0, 1]"] ;
11 -> 12 ;
13 [label="X[0] <= 11928.0\ngini = 0.058\nsamples = 168\nvalue = [163, 5]"] ;
11 -> 13 ;
14 [label="X[12] <= 86.5\ngini = 0.047\nsamples = 167\nvalue = [163, 4]"] ;
13 -> 14 ;
15 [label="X[67] <= 1.5\ngini = 0.035\nsamples = 166\nvalue = [163, 3]"] ;
14 -> 15 ;
16 [label="X[32] <= 32.0\ngini = 0.444\nsamples = 6\nvalue = [4, 2]"] ;
15 -> 16 ;
17 [label="gini = 0.0\nsamples = 2\nvalue = [0, 2]"] ;
16 -> 17 ;
18 [label="gini = 0.0\nsamples = 4\nvalue = [4, 0]"] ;
16 -> 18 ;
19 [label="X[67] <= 14.5\ngini = 0.012\nsamples = 160\nvalue = [159, 1]"] ;
15 -> 19 ;
20 [label="gini = 0.0\nsamples = 153\nvalue = [153, 0]"] ;
19 -> 20 ;
21 [label="X[9] <= 0.178\ngini = 0.245\nsamples = 7\nvalue = [6, 1]"] ;
19 -> 21 ;
22 [label="gini = 0.0\nsamples = 1\nvalue = [0, 1]"] ;
21 -> 22 ;
23 [label="gini = 0.0\nsamples = 6\nvalue = [6, 0]"] ;
21 -> 23 ;
24 [label="gini = 0.0\nsamples = 1\nvalue = [0, 1]"] ;
14 -> 24 ;
25 [label="gini = 0.0\nsamples = 1\nvalue = [0, 1]"] ;
13 -> 25 ;
26 [label="gini = 0.0\nsamples = 2\nvalue = [0, 2]"] ;
4 -> 26 ;
27 [label="X[51] <= 8.5\ngini = 0.38\nsamples = 208\nvalue = [155, 53]"] ;
3 -> 27 ;
28 [label="X[85] <= 44.5\ngini = 0.352\nsamples = 197\nvalue = [152, 45]"] ;
27 -> 28 ;
29 [label="X[78] <= 2925.0\ngini = 0.284\nsamples = 146\nvalue = [121, 25]"] ;
28 -> 29 ;
30 [label="X[0] <= 212.5\ngini = 0.254\nsamples = 141\nvalue = [120, 21]"] ;
29 -> 30 ;
31 [label="X[19] <= 30590.0\ngini = 0.375\nsamples = 4\nvalue = [1, 3]"] ;
30 -> 31 ;
32 [label="gini = 0.0\nsamples = 1\nvalue = [1, 0]"] ;
31 -> 32 ;
33 [label="gini = 0.0\nsamples = 3\nvalue = [0, 3]"] ;
31 -> 33 ;
34 [label="X[50] <= 12.5\ngini = 0.228\nsamples = 137\nvalue = [119, 18]"] ;
30 -> 34 ;
35 [label="X[68] <= 1.5\ngini = 0.195\nsamples = 128\nvalue = [114, 14]"] ;
34 -> 35 ;
36 [label="X[31] <= 1.0\ngini = 0.5\nsamples = 6\nvalue = [3, 3]"] ;
35 -> 36 ;
37 [label="gini = 0.0\nsamples = 3\nvalue = [0, 3]"] ;
36 -> 37 ;
38 [label="gini = 0.0\nsamples = 3\nvalue = [3, 0]"] ;
36 -> 38 ;
39 [label="X[46] <= 251.5\ngini = 0.164\nsamples = 122\nvalue = [111, 11]"] ;
35 -> 39 ;
40 [label="X[39] <= 4.5\ngini = 0.152\nsamples = 121\nvalue = [111, 10]"] ;
39 -> 40 ;
41 [label="X[58] <= 71.5\ngini = 0.106\nsamples = 107\nvalue = [101, 6]"] ;
40 -> 41 ;
42 [label="X[53] <= 10.0\ngini = 0.397\nsamples = 11\nvalue = [8, 3]"] ;
41 -> 42 ;
43 [label="X[48] <= 527.5\ngini = 0.198\nsamples = 9\nvalue = [8, 1]"] ;
42 -> 43 ;
44 [label="gini = 0.0\nsamples = 1\nvalue = [0, 1]"] ;
43 -> 44 ;
45 [label="gini = 0.0\nsamples = 8\nvalue = [8, 0]"] ;
43 -> 45 ;
46 [label="gini = 0.0\nsamples = 2\nvalue = [0, 2]"] ;
42 -> 46 ;
47 [label="X[0] <= 401.5\ngini = 0.061\nsamples = 96\nvalue = [93, 3]"] ;
41 -> 47 ;
48 [label="X[73] <= 2050.0\ngini = 0.5\nsamples = 2\nvalue = [1, 1]"] ;
47 -> 48 ;
49 [label="gini = 0.0\nsamples = 1\nvalue = [1, 0]"] ;
48 -> 49 ;
50 [label="gini = 0.0\nsamples = 1\nvalue = [0, 1]"] ;
48 -> 50 ;
51 [label="X[36] <= 11.5\ngini = 0.042\nsamples = 94\nvalue = [92, 2]"] ;
47 -> 51 ;
52 [label="X[37] <= 1333696.0\ngini = 0.022\nsamples = 91\nvalue = [90, 1]"] ;
51 -> 52 ;
53 [label="gini = 0.0\nsamples = 87\nvalue = [87, 0]"] ;
52 -> 53 ;
54 [label="X[72] <= 303.0\ngini = 0.375\nsamples = 4\nvalue = [3, 1]"] ;
52 -> 54 ;
55 [label="gini = 0.0\nsamples = 3\nvalue = [3, 0]"] ;
54 -> 55 ;
56 [label="gini = 0.0\nsamples = 1\nvalue = [0, 1]"] ;
54 -> 56 ;
57 [label="X[24] <= 1265.0\ngini = 0.444\nsamples = 3\nvalue = [2, 1]"] ;
51 -> 57 ;
58 [label="gini = 0.0\nsamples = 2\nvalue = [2, 0]"] ;
57 -> 58 ;
59 [label="gini = 0.0\nsamples = 1\nvalue = [0, 1]"] ;
57 -> 59 ;
60 [label="X[74] <= 72.5\ngini = 0.408\nsamples = 14\nvalue = [10, 4]"] ;
40 -> 60 ;
61 [label="X[60] <= 6.0\ngini = 0.375\nsamples = 4\nvalue = [1, 3]"] ;
60 -> 61 ;
62 [label="gini = 0.0\nsamples = 1\nvalue = [1, 0]"] ;
61 -> 62 ;
63 [label="gini = 0.0\nsamples = 3\nvalue = [0, 3]"] ;
61 -> 63 ;
64 [label="X[69] <= 6.5\ngini = 0.18\nsamples = 10\nvalue = [9, 1]"] ;
60 -> 64 ;
65 [label="gini = 0.0\nsamples = 9\nvalue = [9, 0]"] ;
64 -> 65 ;
66 [label="gini = 0.0\nsamples = 1\nvalue = [0, 1]"] ;
64 -> 66 ;
67 [label="gini = 0.0\nsamples = 1\nvalue = [0, 1]"] ;
39 -> 67 ;
68 [label="X[24] <= 1105.0\ngini = 0.494\nsamples = 9\nvalue = [5, 4]"] ;
34 -> 68 ;
69 [label="gini = 0.0\nsamples = 4\nvalue = [4, 0]"] ;
68 -> 69 ;
70 [label="X[62] <= 2.5\ngini = 0.32\nsamples = 5\nvalue = [1, 4]"] ;
68 -> 70 ;
71 [label="gini = 0.0\nsamples = 1\nvalue = [1, 0]"] ;
70 -> 71 ;
72 [label="gini = 0.0\nsamples = 4\nvalue = [0, 4]"] ;
70 -> 72 ;
73 [label="X[19] <= 102630.0\ngini = 0.32\nsamples = 5\nvalue = [1, 4]"] ;
29 -> 73 ;
74 [label="gini = 0.0\nsamples = 4\nvalue = [0, 4]"] ;
73 -> 74 ;
75 [label="gini = 0.0\nsamples = 1\nvalue = [1, 0]"] ;
73 -> 75 ;
76 [label="X[48] <= 607.5\ngini = 0.477\nsamples = 51\nvalue = [31, 20]"] ;
28 -> 76 ;
77 [label="X[20] <= 46.5\ngini = 0.355\nsamples = 13\nvalue = [3, 10]"] ;
76 -> 77 ;
78 [label="gini = 0.0\nsamples = 2\nvalue = [2, 0]"] ;
77 -> 78 ;
79 [label="X[7] <= 0.445\ngini = 0.165\nsamples = 11\nvalue = [1, 10]"] ;
77 -> 79 ;
80 [label="gini = 0.0\nsamples = 1\nvalue = [1, 0]"] ;
79 -> 80 ;
81 [label="gini = 0.0\nsamples = 10\nvalue = [0, 10]"] ;
79 -> 81 ;
82 [label="X[0] <= 7704.0\ngini = 0.388\nsamples = 38\nvalue = [28, 10]"] ;
76 -> 82 ;
83 [label="gini = 0.0\nsamples = 20\nvalue = [20, 0]"] ;
82 -> 83 ;
84 [label="X[46] <= 96.5\ngini = 0.494\nsamples = 18\nvalue = [8, 10]"] ;
82 -> 84 ;
85 [label="X[48] <= 618.5\ngini = 0.298\nsamples = 11\nvalue = [2, 9]"] ;
84 -> 85 ;
86 [label="X[6] <= 2750.0\ngini = 0.444\nsamples = 3\nvalue = [2, 1]"] ;
85 -> 86 ;
87 [label="gini = 0.0\nsamples = 2\nvalue = [2, 0]"] ;
86 -> 87 ;
88 [label="gini = 0.0\nsamples = 1\nvalue = [0, 1]"] ;
86 -> 88 ;
89 [label="gini = 0.0\nsamples = 8\nvalue = [0, 8]"] ;
85 -> 89 ;
90 [label="X[8] <= 0.495\ngini = 0.245\nsamples = 7\nvalue = [6, 1]"] ;
84 -> 90 ;
91 [label="gini = 0.0\nsamples = 1\nvalue = [0, 1]"] ;
90 -> 91 ;
92 [label="gini = 0.0\nsamples = 6\nvalue = [6, 0]"] ;
90 -> 92 ;
93 [label="X[22] <= 2330.0\ngini = 0.397\nsamples = 11\nvalue = [3, 8]"] ;
27 -> 93 ;
94 [label="gini = 0.0\nsamples = 3\nvalue = [3, 0]"] ;
93 -> 94 ;
95 [label="gini = 0.0\nsamples = 8\nvalue = [0, 8]"] ;
93 -> 95 ;
96 [label="X[59] <= 34.5\ngini = 0.485\nsamples = 217\nvalue = [127, 90]"] ;
2 -> 96 ;
97 [label="X[48] <= 535.5\ngini = 0.498\nsamples = 127\nvalue = [60, 67]"] ;
96 -> 97 ;
98 [label="X[8] <= 0.465\ngini = 0.388\nsamples = 57\nvalue = [15, 42]"] ;
97 -> 98 ;
99 [label="gini = 0.0\nsamples = 5\nvalue = [5, 0]"] ;
98 -> 99 ;
100 [label="X[1] <= 3010477.5\ngini = 0.311\nsamples = 52\nvalue = [10, 42]"] ;
98 -> 100 ;
101 [label="X[1] <= 117099.0\ngini = 0.198\nsamples = 45\nvalue = [5, 40]"] ;
100 -> 101 ;
102 [label="X[50] <= 15.5\ngini = 0.444\nsamples = 3\nvalue = [2, 1]"] ;
101 -> 102 ;
103 [label="gini = 0.0\nsamples = 2\nvalue = [2, 0]"] ;
102 -> 103 ;
104 [label="gini = 0.0\nsamples = 1\nvalue = [0, 1]"] ;
102 -> 104 ;
105 [label="X[45] <= 1755.5\ngini = 0.133\nsamples = 42\nvalue = [3, 39]"] ;
101 -> 105 ;
106 [label="X[7] <= 0.04\ngini = 0.093\nsamples = 41\nvalue = [2, 39]"] ;
105 -> 106 ;
107 [label="gini = 0.0\nsamples = 1\nvalue = [1, 0]"] ;
106 -> 107 ;
108 [label="X[12] <= 64.0\ngini = 0.049\nsamples = 40\nvalue = [1, 39]"] ;
106 -> 108 ;
109 [label="gini = 0.0\nsamples = 38\nvalue = [0, 38]"] ;
108 -> 109 ;
110 [label="X[59] <= 16.5\ngini = 0.5\nsamples = 2\nvalue = [1, 1]"] ;
108 -> 110 ;
111 [label="gini = 0.0\nsamples = 1\nvalue = [1, 0]"] ;
110 -> 111 ;
112 [label="gini = 0.0\nsamples = 1\nvalue = [0, 1]"] ;
110 -> 112 ;
113 [label="gini = 0.0\nsamples = 1\nvalue = [1, 0]"] ;
105 -> 113 ;
114 [label="X[10] <= 11.5\ngini = 0.408\nsamples = 7\nvalue = [5, 2]"] ;
100 -> 114 ;
115 [label="gini = 0.0\nsamples = 2\nvalue = [0, 2]"] ;
114 -> 115 ;
116 [label="gini = 0.0\nsamples = 5\nvalue = [5, 0]"] ;
114 -> 116 ;
117 [label="X[1] <= 2377762.5\ngini = 0.459\nsamples = 70\nvalue = [45, 25]"] ;
97 -> 117 ;
118 [label="X[78] <= 2200.0\ngini = 0.295\nsamples = 39\nvalue = [32, 7]"] ;
117 -> 118 ;
119 [label="X[0] <= 336.5\ngini = 0.198\nsamples = 36\nvalue = [32, 4]"] ;
118 -> 119 ;
120 [label="gini = 0.0\nsamples = 1\nvalue = [0, 1]"] ;
119 -> 120 ;
121 [label="X[57] <= 455.0\ngini = 0.157\nsamples = 35\nvalue = [32, 3]"] ;
119 -> 121 ;
122 [label="gini = 0.0\nsamples = 1\nvalue = [0, 1]"] ;
121 -> 122 ;
123 [label="X[1] <= 21426.5\ngini = 0.111\nsamples = 34\nvalue = [32, 2]"] ;
121 -> 123 ;
124 [label="gini = 0.0\nsamples = 1\nvalue = [0, 1]"] ;
123 -> 124 ;
125 [label="X[23] <= 8.5\ngini = 0.059\nsamples = 33\nvalue = [32, 1]"] ;
123 -> 125 ;
126 [label="gini = 0.0\nsamples = 31\nvalue = [31, 0]"] ;
125 -> 126 ;
127 [label="X[35] <= 1.5\ngini = 0.5\nsamples = 2\nvalue = [1, 1]"] ;
125 -> 127 ;
128 [label="gini = 0.0\nsamples = 1\nvalue = [0, 1]"] ;
127 -> 128 ;
129 [label="gini = 0.0\nsamples = 1\nvalue = [1, 0]"] ;
127 -> 129 ;
130 [label="gini = 0.0\nsamples = 3\nvalue = [0, 3]"] ;
118 -> 130 ;
131 [label="X[75] <= 2.5\ngini = 0.487\nsamples = 31\nvalue = [13, 18]"] ;
117 -> 131 ;
132 [label="gini = 0.0\nsamples = 5\nvalue = [5, 0]"] ;
131 -> 132 ;
133 [label="X[5] <= 0.855\ngini = 0.426\nsamples = 26\nvalue = [8, 18]"] ;
131 -> 133 ;
134 [label="gini = 0.0\nsamples = 3\nvalue = [3, 0]"] ;
133 -> 134 ;
135 [label="X[82] <= 2.5\ngini = 0.34\nsamples = 23\nvalue = [5, 18]"] ;
133 -> 135 ;
136 [label="X[53] <= 8.5\ngini = 0.5\nsamples = 10\nvalue = [5, 5]"] ;
135 -> 136 ;
137 [label="gini = 0.0\nsamples = 4\nvalue = [4, 0]"] ;
136 -> 137 ;
138 [label="X[27] <= 0.5\ngini = 0.278\nsamples = 6\nvalue = [1, 5]"] ;
136 -> 138 ;
139 [label="gini = 0.0\nsamples = 1\nvalue = [1, 0]"] ;
138 -> 139 ;
140 [label="gini = 0.0\nsamples = 5\nvalue = [0, 5]"] ;
138 -> 140 ;
141 [label="gini = 0.0\nsamples = 13\nvalue = [0, 13]"] ;
135 -> 141 ;
142 [label="X[61] <= 4.5\ngini = 0.38\nsamples = 90\nvalue = [67, 23]"] ;
96 -> 142 ;
143 [label="X[22] <= 11565.0\ngini = 0.071\nsamples = 27\nvalue = [26, 1]"] ;
142 -> 143 ;
144 [label="gini = 0.0\nsamples = 26\nvalue = [26, 0]"] ;
143 -> 144 ;
145 [label="gini = 0.0\nsamples = 1\nvalue = [0, 1]"] ;
143 -> 145 ;
146 [label="X[9] <= 0.321\ngini = 0.455\nsamples = 63\nvalue = [41, 22]"] ;
142 -> 146 ;
147 [label="X[46] <= 173.0\ngini = 0.353\nsamples = 48\nvalue = [37, 11]"] ;
146 -> 147 ;
148 [label="X[26] <= 885.0\ngini = 0.273\nsamples = 43\nvalue = [36, 7]"] ;
147 -> 148 ;
149 [label="X[46] <= 90.0\ngini = 0.469\nsamples = 16\nvalue = [10, 6]"] ;
148 -> 149 ;
150 [label="X[27] <= 0.775\ngini = 0.18\nsamples = 10\nvalue = [9, 1]"] ;
149 -> 150 ;
151 [label="gini = 0.0\nsamples = 9\nvalue = [9, 0]"] ;
150 -> 151 ;
152 [label="gini = 0.0\nsamples = 1\nvalue = [0, 1]"] ;
150 -> 152 ;
153 [label="X[27] <= 0.575\ngini = 0.278\nsamples = 6\nvalue = [1, 5]"] ;
149 -> 153 ;
154 [label="gini = 0.0\nsamples = 1\nvalue = [1, 0]"] ;
153 -> 154 ;
155 [label="gini = 0.0\nsamples = 5\nvalue = [0, 5]"] ;
153 -> 155 ;
156 [label="X[12] <= 18.0\ngini = 0.071\nsamples = 27\nvalue = [26, 1]"] ;
148 -> 156 ;
157 [label="gini = 0.0\nsamples = 1\nvalue = [0, 1]"] ;
156 -> 157 ;
158 [label="gini = 0.0\nsamples = 26\nvalue = [26, 0]"] ;
156 -> 158 ;
159 [label="X[55] <= 5.0\ngini = 0.32\nsamples = 5\nvalue = [1, 4]"] ;
147 -> 159 ;
160 [label="gini = 0.0\nsamples = 1\nvalue = [1, 0]"] ;
159 -> 160 ;
161 [label="gini = 0.0\nsamples = 4\nvalue = [0, 4]"] ;
159 -> 161 ;
162 [label="X[30] <= 21.0\ngini = 0.391\nsamples = 15\nvalue = [4, 11]"] ;
146 -> 162 ;
163 [label="X[15] <= 4805.0\ngini = 0.375\nsamples = 4\nvalue = [3, 1]"] ;
162 -> 163 ;
164 [label="gini = 0.0\nsamples = 1\nvalue = [0, 1]"] ;
163 -> 164 ;
165 [label="gini = 0.0\nsamples = 3\nvalue = [3, 0]"] ;
163 -> 165 ;
166 [label="X[68] <= 37.0\ngini = 0.165\nsamples = 11\nvalue = [1, 10]"] ;
162 -> 166 ;
167 [label="gini = 0.0\nsamples = 1\nvalue = [1, 0]"] ;
166 -> 167 ;
168 [label="gini = 0.0\nsamples = 10\nvalue = [0, 10]"] ;
166 -> 168 ;
169 [label="X[69] <= 28.5\ngini = 0.181\nsamples = 1381\nvalue = [1242, 139]"] ;
1 -> 169 ;
170 [label="X[20] <= 106.5\ngini = 0.153\nsamples = 1197\nvalue = [1097, 100]"] ;
169 -> 170 ;
171 [label="X[31] <= 23.5\ngini = 0.28\nsamples = 202\nvalue = [168, 34]"] ;
170 -> 171 ;
172 [label="X[26] <= 2860.0\ngini = 0.263\nsamples = 199\nvalue = [168, 31]"] ;
171 -> 172 ;
173 [label="X[67] <= 31.0\ngini = 0.241\nsamples = 193\nvalue = [166, 27]"] ;
172 -> 173 ;
174 [label="X[85] <= -1.5\ngini = 0.228\nsamples = 191\nvalue = [166, 25]"] ;
173 -> 174 ;
175 [label="gini = 0.0\nsamples = 2\nvalue = [0, 2]"] ;
174 -> 175 ;
176 [label="X[4] <= 0.025\ngini = 0.214\nsamples = 189\nvalue = [166, 23]"] ;
174 -> 176 ;
177 [label="X[22] <= 104555.0\ngini = 0.138\nsamples = 148\nvalue = [137, 11]"] ;
176 -> 177 ;
178 [label="X[58] <= 65.5\ngini = 0.127\nsamples = 147\nvalue = [137, 10]"] ;
177 -> 178 ;
179 [label="gini = 0.0\nsamples = 1\nvalue = [0, 1]"] ;
178 -> 179 ;
180 [label="X[71] <= 11.5\ngini = 0.116\nsamples = 146\nvalue = [137, 9]"] ;
178 -> 180 ;
181 [label="X[61] <= 3.5\ngini = 0.104\nsamples = 145\nvalue = [137, 8]"] ;
180 -> 181 ;
182 [label="X[41] <= 2110.0\ngini = 0.082\nsamples = 140\nvalue = [134, 6]"] ;
181 -> 182 ;
183 [label="X[29] <= 22.5\ngini = 0.045\nsamples = 129\nvalue = [126, 3]"] ;
182 -> 183 ;
184 [label="X[39] <= 18.0\ngini = 0.031\nsamples = 127\nvalue = [125, 2]"] ;
183 -> 184 ;
185 [label="X[37] <= 1515380.0\ngini = 0.016\nsamples = 125\nvalue = [124, 1]"] ;
184 -> 185 ;
186 [label="gini = 0.0\nsamples = 122\nvalue = [122, 0]"] ;
185 -> 186 ;
187 [label="X[51] <= 2.5\ngini = 0.444\nsamples = 3\nvalue = [2, 1]"] ;
185 -> 187 ;
188 [label="gini = 0.0\nsamples = 1\nvalue = [0, 1]"] ;
187 -> 188 ;
189 [label="gini = 0.0\nsamples = 2\nvalue = [2, 0]"] ;
187 -> 189 ;
190 [label="X[26] <= 920.0\ngini = 0.5\nsamples = 2\nvalue = [1, 1]"] ;
184 -> 190 ;
191 [label="gini = 0.0\nsamples = 1\nvalue = [0, 1]"] ;
190 -> 191 ;
192 [label="gini = 0.0\nsamples = 1\nvalue = [1, 0]"] ;
190 -> 192 ;
193 [label="X[39] <= 4.5\ngini = 0.5\nsamples = 2\nvalue = [1, 1]"] ;
183 -> 193 ;
194 [label="gini = 0.0\nsamples = 1\nvalue = [0, 1]"] ;
193 -> 194 ;
195 [label="gini = 0.0\nsamples = 1\nvalue = [1, 0]"] ;
193 -> 195 ;
196 [label="X[54] <= 1.5\ngini = 0.397\nsamples = 11\nvalue = [8, 3]"] ;
182 -> 196 ;
197 [label="gini = 0.0\nsamples = 3\nvalue = [0, 3]"] ;
196 -> 197 ;
198 [label="gini = 0.0\nsamples = 8\nvalue = [8, 0]"] ;
196 -> 198 ;
199 [label="X[20] <= 68.0\ngini = 0.48\nsamples = 5\nvalue = [3, 2]"] ;
181 -> 199 ;
200 [label="gini = 0.0\nsamples = 2\nvalue = [0, 2]"] ;
199 -> 200 ;
201 [label="gini = 0.0\nsamples = 3\nvalue = [3, 0]"] ;
199 -> 201 ;
202 [label="gini = 0.0\nsamples = 1\nvalue = [0, 1]"] ;
180 -> 202 ;
203 [label="gini = 0.0\nsamples = 1\nvalue = [0, 1]"] ;
177 -> 203 ;
204 [label="X[47] <= 3635.5\ngini = 0.414\nsamples = 41\nvalue = [29, 12]"] ;
176 -> 204 ;
205 [label="X[10] <= 19.5\ngini = 0.264\nsamples = 32\nvalue = [27, 5]"] ;
204 -> 205 ;
206 [label="X[80] <= 75.0\ngini = 0.18\nsamples = 30\nvalue = [27, 3]"] ;
205 -> 206 ;
207 [label="X[21] <= 0.75\ngini = 0.444\nsamples = 3\nvalue = [1, 2]"] ;
206 -> 207 ;
208 [label="gini = 0.0\nsamples = 2\nvalue = [0, 2]"] ;
207 -> 208 ;
209 [label="gini = 0.0\nsamples = 1\nvalue = [1, 0]"] ;
207 -> 209 ;
210 [label="X[26] <= 1355.0\ngini = 0.071\nsamples = 27\nvalue = [26, 1]"] ;
206 -> 210 ;
211 [label="gini = 0.0\nsamples = 26\nvalue = [26, 0]"] ;
210 -> 211 ;
212 [label="gini = 0.0\nsamples = 1\nvalue = [0, 1]"] ;
210 -> 212 ;
213 [label="gini = 0.0\nsamples = 2\nvalue = [0, 2]"] ;
205 -> 213 ;
214 [label="X[37] <= 327100.5\ngini = 0.346\nsamples = 9\nvalue = [2, 7]"] ;
204 -> 214 ;
215 [label="gini = 0.0\nsamples = 7\nvalue = [0, 7]"] ;
214 -> 215 ;
216 [label="gini = 0.0\nsamples = 2\nvalue = [2, 0]"] ;
214 -> 216 ;
217 [label="gini = 0.0\nsamples = 2\nvalue = [0, 2]"] ;
173 -> 217 ;
218 [label="X[19] <= 118955.0\ngini = 0.444\nsamples = 6\nvalue = [2, 4]"] ;
172 -> 218 ;
219 [label="gini = 0.0\nsamples = 2\nvalue = [2, 0]"] ;
218 -> 219 ;
220 [label="gini = 0.0\nsamples = 4\nvalue = [0, 4]"] ;
218 -> 220 ;
221 [label="gini = 0.0\nsamples = 3\nvalue = [0, 3]"] ;
171 -> 221 ;
222 [label="X[4] <= 0.105\ngini = 0.124\nsamples = 995\nvalue = [929, 66]"] ;
170 -> 222 ;
223 [label="X[25] <= 0.075\ngini = 0.118\nsamples = 988\nvalue = [926, 62]"] ;
222 -> 223 ;
224 [label="X[15] <= 490.0\ngini = 0.037\nsamples = 319\nvalue = [313, 6]"] ;
223 -> 224 ;
225 [label="X[19] <= 427565.0\ngini = 0.5\nsamples = 2\nvalue = [1, 1]"] ;
224 -> 225 ;
226 [label="gini = 0.0\nsamples = 1\nvalue = [0, 1]"] ;
225 -> 226 ;
227 [label="gini = 0.0\nsamples = 1\nvalue = [1, 0]"] ;
225 -> 227 ;
228 [label="X[7] <= 54.745\ngini = 0.031\nsamples = 317\nvalue = [312, 5]"] ;
224 -> 228 ;
229 [label="X[20] <= 115.5\ngini = 0.025\nsamples = 315\nvalue = [311, 4]"] ;
228 -> 229 ;
230 [label="X[64] <= 6.5\ngini = 0.5\nsamples = 2\nvalue = [1, 1]"] ;
229 -> 230 ;
231 [label="gini = 0.0\nsamples = 1\nvalue = [0, 1]"] ;
230 -> 231 ;
232 [label="gini = 0.0\nsamples = 1\nvalue = [1, 0]"] ;
230 -> 232 ;
233 [label="X[57] <= 674.5\ngini = 0.019\nsamples = 313\nvalue = [310, 3]"] ;
229 -> 233 ;
234 [label="X[80] <= 74.5\ngini = 0.013\nsamples = 310\nvalue = [308, 2]"] ;
233 -> 234 ;
235 [label="X[37] <= 580842.5\ngini = 0.208\nsamples = 17\nvalue = [15, 2]"] ;
234 -> 235 ;
236 [label="X[45] <= 2145.5\ngini = 0.117\nsamples = 16\nvalue = [15, 1]"] ;
235 -> 236 ;
237 [label="gini = 0.0\nsamples = 15\nvalue = [15, 0]"] ;
236 -> 237 ;
238 [label="gini = 0.0\nsamples = 1\nvalue = [0, 1]"] ;
236 -> 238 ;
239 [label="gini = 0.0\nsamples = 1\nvalue = [0, 1]"] ;
235 -> 239 ;
240 [label="gini = 0.0\nsamples = 293\nvalue = [293, 0]"] ;
234 -> 240 ;
241 [label="X[19] <= 284920.0\ngini = 0.444\nsamples = 3\nvalue = [2, 1]"] ;
233 -> 241 ;
242 [label="gini = 0.0\nsamples = 1\nvalue = [0, 1]"] ;
241 -> 242 ;
243 [label="gini = 0.0\nsamples = 2\nvalue = [2, 0]"] ;
241 -> 243 ;
244 [label="X[5] <= 0.915\ngini = 0.5\nsamples = 2\nvalue = [1, 1]"] ;
228 -> 244 ;
245 [label="gini = 0.0\nsamples = 1\nvalue = [0, 1]"] ;
244 -> 245 ;
246 [label="gini = 0.0\nsamples = 1\nvalue = [1, 0]"] ;
244 -> 246 ;
247 [label="X[57] <= 483.5\ngini = 0.153\nsamples = 669\nvalue = [613, 56]"] ;
223 -> 247 ;
248 [label="X[25] <= 0.35\ngini = 0.426\nsamples = 26\nvalue = [18, 8]"] ;
247 -> 248 ;
249 [label="X[7] <= 13.05\ngini = 0.18\nsamples = 20\nvalue = [18, 2]"] ;
248 -> 249 ;
250 [label="X[0] <= 11588.0\ngini = 0.1\nsamples = 19\nvalue = [18, 1]"] ;
249 -> 250 ;
251 [label="gini = 0.0\nsamples = 18\nvalue = [18, 0]"] ;
250 -> 251 ;
252 [label="gini = 0.0\nsamples = 1\nvalue = [0, 1]"] ;
250 -> 252 ;
253 [label="gini = 0.0\nsamples = 1\nvalue = [0, 1]"] ;
249 -> 253 ;
254 [label="gini = 0.0\nsamples = 6\nvalue = [0, 6]"] ;
248 -> 254 ;
255 [label="X[71] <= 6.5\ngini = 0.138\nsamples = 643\nvalue = [595, 48]"] ;
247 -> 255 ;
256 [label="X[0] <= 26.5\ngini = 0.133\nsamples = 641\nvalue = [595, 46]"] ;
255 -> 256 ;
257 [label="gini = 0.0\nsamples = 1\nvalue = [0, 1]"] ;
256 -> 257 ;
258 [label="X[40] <= 16.0\ngini = 0.131\nsamples = 640\nvalue = [595, 45]"] ;
256 -> 258 ;
259 [label="X[33] <= 2.5\ngini = 0.128\nsamples = 639\nvalue = [595, 44]"] ;
258 -> 259 ;
260 [label="X[24] <= 28030.0\ngini = 0.118\nsamples = 621\nvalue = [582, 39]"] ;
259 -> 260 ;
261 [label="X[78] <= 1434.5\ngini = 0.1\nsamples = 570\nvalue = [540, 30]"] ;
260 -> 261 ;
262 [label="X[38] <= 510.0\ngini = 0.254\nsamples = 67\nvalue = [57, 10]"] ;
261 -> 262 ;
263 [label="X[0] <= 11354.0\ngini = 0.444\nsamples = 6\nvalue = [2, 4]"] ;
262 -> 263 ;
264 [label="gini = 0.0\nsamples = 4\nvalue = [0, 4]"] ;
263 -> 264 ;
265 [label="gini = 0.0\nsamples = 2\nvalue = [2, 0]"] ;
263 -> 265 ;
266 [label="X[50] <= 3.5\ngini = 0.177\nsamples = 61\nvalue = [55, 6]"] ;
262 -> 266 ;
267 [label="X[19] <= 92545.0\ngini = 0.49\nsamples = 7\nvalue = [4, 3]"] ;
266 -> 267 ;
268 [label="gini = 0.0\nsamples = 3\nvalue = [0, 3]"] ;
267 -> 268 ;
269 [label="gini = 0.0\nsamples = 4\nvalue = [4, 0]"] ;
267 -> 269 ;
270 [label="X[23] <= 9.5\ngini = 0.105\nsamples = 54\nvalue = [51, 3]"] ;
266 -> 270 ;
271 [label="X[27] <= 0.775\ngini = 0.073\nsamples = 53\nvalue = [51, 2]"] ;
270 -> 271 ;
272 [label="X[33] <= 1.5\ngini = 0.038\nsamples = 52\nvalue = [51, 1]"] ;
271 -> 272 ;
273 [label="gini = 0.0\nsamples = 50\nvalue = [50, 0]"] ;
272 -> 273 ;
274 [label="X[32] <= 14.0\ngini = 0.5\nsamples = 2\nvalue = [1, 1]"] ;
272 -> 274 ;
275 [label="gini = 0.0\nsamples = 1\nvalue = [1, 0]"] ;
274 -> 275 ;
276 [label="gini = 0.0\nsamples = 1\nvalue = [0, 1]"] ;
274 -> 276 ;
277 [label="gini = 0.0\nsamples = 1\nvalue = [0, 1]"] ;
271 -> 277 ;
278 [label="gini = 0.0\nsamples = 1\nvalue = [0, 1]"] ;
270 -> 278 ;
279 [label="X[57] <= 509.5\ngini = 0.076\nsamples = 503\nvalue = [483, 20]"] ;
261 -> 279 ;
280 [label="X[15] <= 305.0\ngini = 0.154\nsamples = 178\nvalue = [163, 15]"] ;
279 -> 280 ;
281 [label="gini = 0.0\nsamples = 1\nvalue = [0, 1]"] ;
280 -> 281 ;
282 [label="X[53] <= 46.0\ngini = 0.146\nsamples = 177\nvalue = [163, 14]"] ;
280 -> 282 ;
283 [label="X[1] <= 3477955.0\ngini = 0.137\nsamples = 176\nvalue = [163, 13]"] ;
282 -> 283 ;
284 [label="X[76] <= 1.5\ngini = 0.128\nsamples = 175\nvalue = [163, 12]"] ;
283 -> 284 ;
285 [label="gini = 0.0\nsamples = 1\nvalue = [0, 1]"] ;
284 -> 285 ;
286 [label="X[22] <= 142895.0\ngini = 0.118\nsamples = 174\nvalue = [163, 11]"] ;
284 -> 286 ;
287 [label="X[63] <= 8.5\ngini = 0.109\nsamples = 173\nvalue = [163, 10]"] ;
286 -> 287 ;
288 [label="X[85] <= 29.5\ngini = 0.081\nsamples = 165\nvalue = [158, 7]"] ;
287 -> 288 ;
289 [label="X[49] <= 63.5\ngini = 0.029\nsamples = 138\nvalue = [136, 2]"] ;
288 -> 289 ;
290 [label="gini = 0.0\nsamples = 1\nvalue = [0, 1]"] ;
289 -> 290 ;
291 [label="X[9] <= 0.212\ngini = 0.014\nsamples = 137\nvalue = [136, 1]"] ;
289 -> 291 ;
292 [label="X[4] <= 0.005\ngini = 0.5\nsamples = 2\nvalue = [1, 1]"] ;
291 -> 292 ;
293 [label="gini = 0.0\nsamples = 1\nvalue = [1, 0]"] ;
292 -> 293 ;
294 [label="gini = 0.0\nsamples = 1\nvalue = [0, 1]"] ;
292 -> 294 ;
295 [label="gini = 0.0\nsamples = 135\nvalue = [135, 0]"] ;
291 -> 295 ;
296 [label="X[48] <= 545.5\ngini = 0.302\nsamples = 27\nvalue = [22, 5]"] ;
288 -> 296 ;
297 [label="X[4] <= 0.005\ngini = 0.153\nsamples = 24\nvalue = [22, 2]"] ;
296 -> 297 ;
298 [label="X[19] <= 134735.0\ngini = 0.444\nsamples = 3\nvalue = [1, 2]"] ;
297 -> 298 ;
299 [label="gini = 0.0\nsamples = 1\nvalue = [1, 0]"] ;
298 -> 299 ;
300 [label="gini = 0.0\nsamples = 2\nvalue = [0, 2]"] ;
298 -> 300 ;
301 [label="gini = 0.0\nsamples = 21\nvalue = [21, 0]"] ;
297 -> 301 ;
302 [label="gini = 0.0\nsamples = 3\nvalue = [0, 3]"] ;
296 -> 302 ;
303 [label="X[38] <= 1795.0\ngini = 0.469\nsamples = 8\nvalue = [5, 3]"] ;
287 -> 303 ;
304 [label="gini = 0.0\nsamples = 5\nvalue = [5, 0]"] ;
303 -> 304 ;
305 [label="gini = 0.0\nsamples = 3\nvalue = [0, 3]"] ;
303 -> 305 ;
306 [label="gini = 0.0\nsamples = 1\nvalue = [0, 1]"] ;
286 -> 306 ;
307 [label="gini = 0.0\nsamples = 1\nvalue = [0, 1]"] ;
283 -> 307 ;
308 [label="gini = 0.0\nsamples = 1\nvalue = [0, 1]"] ;
282 -> 308 ;
309 [label="X[22] <= 95765.0\ngini = 0.03\nsamples = 325\nvalue = [320, 5]"] ;
279 -> 309 ;
310 [label="X[0] <= 11873.5\ngini = 0.019\nsamples = 314\nvalue = [311, 3]"] ;
309 -> 310 ;
311 [label="X[26] <= 560.0\ngini = 0.013\nsamples = 311\nvalue = [309, 2]"] ;
310 -> 311 ;
312 [label="X[53] <= 6.5\ngini = 0.219\nsamples = 8\nvalue = [7, 1]"] ;
311 -> 312 ;
313 [label="gini = 0.0\nsamples = 1\nvalue = [0, 1]"] ;
312 -> 313 ;
314 [label="gini = 0.0\nsamples = 7\nvalue = [7, 0]"] ;
312 -> 314 ;
315 [label="X[36] <= 7.5\ngini = 0.007\nsamples = 303\nvalue = [302, 1]"] ;
311 -> 315 ;
316 [label="gini = 0.0\nsamples = 275\nvalue = [275, 0]"] ;
315 -> 316 ;
317 [label="X[27] <= 0.425\ngini = 0.069\nsamples = 28\nvalue = [27, 1]"] ;
315 -> 317 ;
318 [label="X[59] <= 55.5\ngini = 0.5\nsamples = 2\nvalue = [1, 1]"] ;
317 -> 318 ;
319 [label="gini = 0.0\nsamples = 1\nvalue = [0, 1]"] ;
318 -> 319 ;
320 [label="gini = 0.0\nsamples = 1\nvalue = [1, 0]"] ;
318 -> 320 ;
321 [label="gini = 0.0\nsamples = 26\nvalue = [26, 0]"] ;
317 -> 321 ;
322 [label="X[1] <= 479620.5\ngini = 0.444\nsamples = 3\nvalue = [2, 1]"] ;
310 -> 322 ;
323 [label="gini = 0.0\nsamples = 1\nvalue = [0, 1]"] ;
322 -> 323 ;
324 [label="gini = 0.0\nsamples = 2\nvalue = [2, 0]"] ;
322 -> 324 ;
325 [label="X[7] <= 1.475\ngini = 0.298\nsamples = 11\nvalue = [9, 2]"] ;
309 -> 325 ;
326 [label="gini = 0.0\nsamples = 9\nvalue = [9, 0]"] ;
325 -> 326 ;
327 [label="gini = 0.0\nsamples = 2\nvalue = [0, 2]"] ;
325 -> 327 ;
328 [label="X[82] <= 9.5\ngini = 0.291\nsamples = 51\nvalue = [42, 9]"] ;
260 -> 328 ;
329 [label="X[30] <= 21.5\ngini = 0.245\nsamples = 49\nvalue = [42, 7]"] ;
328 -> 329 ;
330 [label="X[35] <= 7.5\ngini = 0.105\nsamples = 36\nvalue = [34, 2]"] ;
329 -> 330 ;
331 [label="X[58] <= 72.5\ngini = 0.056\nsamples = 35\nvalue = [34, 1]"] ;
330 -> 331 ;
332 [label="gini = 0.0\nsamples = 1\nvalue = [0, 1]"] ;
331 -> 332 ;
333 [label="gini = 0.0\nsamples = 34\nvalue = [34, 0]"] ;
331 -> 333 ;
334 [label="gini = 0.0\nsamples = 1\nvalue = [0, 1]"] ;
330 -> 334 ;
335 [label="X[73] <= 2450.0\ngini = 0.473\nsamples = 13\nvalue = [8, 5]"] ;
329 -> 335 ;
336 [label="gini = 0.0\nsamples = 6\nvalue = [6, 0]"] ;
335 -> 336 ;
337 [label="X[15] <= 68580.0\ngini = 0.408\nsamples = 7\nvalue = [2, 5]"] ;
335 -> 337 ;
338 [label="gini = 0.0\nsamples = 5\nvalue = [0, 5]"] ;
337 -> 338 ;
339 [label="gini = 0.0\nsamples = 2\nvalue = [2, 0]"] ;
337 -> 339 ;
340 [label="gini = 0.0\nsamples = 2\nvalue = [0, 2]"] ;
328 -> 340 ;
341 [label="X[49] <= 79.5\ngini = 0.401\nsamples = 18\nvalue = [13, 5]"] ;
259 -> 341 ;
342 [label="X[56] <= 1.5\ngini = 0.133\nsamples = 14\nvalue = [13, 1]"] ;
341 -> 342 ;
343 [label="gini = 0.0\nsamples = 1\nvalue = [0, 1]"] ;
342 -> 343 ;
344 [label="gini = 0.0\nsamples = 13\nvalue = [13, 0]"] ;
342 -> 344 ;
345 [label="gini = 0.0\nsamples = 4\nvalue = [0, 4]"] ;
341 -> 345 ;
346 [label="gini = 0.0\nsamples = 1\nvalue = [0, 1]"] ;
258 -> 346 ;
347 [label="gini = 0.0\nsamples = 2\nvalue = [0, 2]"] ;
255 -> 347 ;
348 [label="X[49] <= 77.5\ngini = 0.49\nsamples = 7\nvalue = [3, 4]"] ;
222 -> 348 ;
349 [label="gini = 0.0\nsamples = 3\nvalue = [3, 0]"] ;
348 -> 349 ;
350 [label="gini = 0.0\nsamples = 4\nvalue = [0, 4]"] ;
348 -> 350 ;
351 [label="X[86] <= 65.0\ngini = 0.334\nsamples = 184\nvalue = [145, 39]"] ;
169 -> 351 ;
352 [label="X[38] <= 1115.0\ngini = 0.442\nsamples = 82\nvalue = [55, 27]"] ;
351 -> 352 ;
353 [label="X[30] <= 18.5\ngini = 0.48\nsamples = 25\nvalue = [10, 15]"] ;
352 -> 353 ;
354 [label="X[1] <= 154744.5\ngini = 0.142\nsamples = 13\nvalue = [1, 12]"] ;
353 -> 354 ;
355 [label="gini = 0.0\nsamples = 1\nvalue = [1, 0]"] ;
354 -> 355 ;
356 [label="gini = 0.0\nsamples = 12\nvalue = [0, 12]"] ;
354 -> 356 ;
357 [label="X[55] <= 9.5\ngini = 0.375\nsamples = 12\nvalue = [9, 3]"] ;
353 -> 357 ;
358 [label="X[0] <= 5815.0\ngini = 0.375\nsamples = 4\nvalue = [1, 3]"] ;
357 -> 358 ;
359 [label="gini = 0.0\nsamples = 3\nvalue = [0, 3]"] ;
358 -> 359 ;
360 [label="gini = 0.0\nsamples = 1\nvalue = [1, 0]"] ;
358 -> 360 ;
361 [label="gini = 0.0\nsamples = 8\nvalue = [8, 0]"] ;
357 -> 361 ;
362 [label="X[12] <= 25.5\ngini = 0.332\nsamples = 57\nvalue = [45, 12]"] ;
352 -> 362 ;
363 [label="X[45] <= 2257.5\ngini = 0.265\nsamples = 51\nvalue = [43, 8]"] ;
362 -> 363 ;
364 [label="X[71] <= 7.0\ngini = 0.19\nsamples = 47\nvalue = [42, 5]"] ;
363 -> 364 ;
365 [label="X[9] <= 0.753\ngini = 0.093\nsamples = 41\nvalue = [39, 2]"] ;
364 -> 365 ;
366 [label="X[85] <= -1.0\ngini = 0.049\nsamples = 40\nvalue = [39, 1]"] ;
365 -> 366 ;
367 [label="X[50] <= 15.5\ngini = 0.5\nsamples = 2\nvalue = [1, 1]"] ;
366 -> 367 ;
368 [label="gini = 0.0\nsamples = 1\nvalue = [1, 0]"] ;
367 -> 368 ;
369 [label="gini = 0.0\nsamples = 1\nvalue = [0, 1]"] ;
367 -> 369 ;
370 [label="gini = 0.0\nsamples = 38\nvalue = [38, 0]"] ;
366 -> 370 ;
371 [label="gini = 0.0\nsamples = 1\nvalue = [0, 1]"] ;
365 -> 371 ;
372 [label="X[36] <= 7.5\ngini = 0.5\nsamples = 6\nvalue = [3, 3]"] ;
364 -> 372 ;
373 [label="gini = 0.0\nsamples = 3\nvalue = [3, 0]"] ;
372 -> 373 ;
374 [label="gini = 0.0\nsamples = 3\nvalue = [0, 3]"] ;
372 -> 374 ;
375 [label="X[37] <= 291.0\ngini = 0.375\nsamples = 4\nvalue = [1, 3]"] ;
363 -> 375 ;
376 [label="gini = 0.0\nsamples = 1\nvalue = [1, 0]"] ;
375 -> 376 ;
377 [label="gini = 0.0\nsamples = 3\nvalue = [0, 3]"] ;
375 -> 377 ;
378 [label="X[81] <= 7.5\ngini = 0.444\nsamples = 6\nvalue = [2, 4]"] ;
362 -> 378 ;
379 [label="gini = 0.0\nsamples = 4\nvalue = [0, 4]"] ;
378 -> 379 ;
380 [label="gini = 0.0\nsamples = 2\nvalue = [2, 0]"] ;
378 -> 380 ;
381 [label="X[28] <= 1.0\ngini = 0.208\nsamples = 102\nvalue = [90, 12]"] ;
351 -> 381 ;
382 [label="gini = 0.0\nsamples = 2\nvalue = [0, 2]"] ;
381 -> 382 ;
383 [label="X[10] <= 25.5\ngini = 0.18\nsamples = 100\nvalue = [90, 10]"] ;
381 -> 383 ;
384 [label="X[9] <= 0.309\ngini = 0.151\nsamples = 97\nvalue = [89, 8]"] ;
383 -> 384 ;
385 [label="X[23] <= 5.5\ngini = 0.342\nsamples = 32\nvalue = [25, 7]"] ;
384 -> 385 ;
386 [label="gini = 0.0\nsamples = 2\nvalue = [0, 2]"] ;
385 -> 386 ;
387 [label="X[12] <= 14.0\ngini = 0.278\nsamples = 30\nvalue = [25, 5]"] ;
385 -> 387 ;
388 [label="gini = 0.0\nsamples = 2\nvalue = [0, 2]"] ;
387 -> 388 ;
389 [label="X[7] <= 0.025\ngini = 0.191\nsamples = 28\nvalue = [25, 3]"] ;
387 -> 389 ;
390 [label="gini = 0.0\nsamples = 1\nvalue = [0, 1]"] ;
389 -> 390 ;
391 [label="X[18] <= 20170316.0\ngini = 0.137\nsamples = 27\nvalue = [25, 2]"] ;
389 -> 391 ;
392 [label="X[17] <= 52.5\ngini = 0.074\nsamples = 26\nvalue = [25, 1]"] ;
391 -> 392 ;
393 [label="gini = 0.0\nsamples = 25\nvalue = [25, 0]"] ;
392 -> 393 ;
394 [label="gini = 0.0\nsamples = 1\nvalue = [0, 1]"] ;
392 -> 394 ;
395 [label="gini = 0.0\nsamples = 1\nvalue = [0, 1]"] ;
391 -> 395 ;
396 [label="X[7] <= 2.87\ngini = 0.03\nsamples = 65\nvalue = [64, 1]"] ;
384 -> 396 ;
397 [label="gini = 0.0\nsamples = 60\nvalue = [60, 0]"] ;
396 -> 397 ;
398 [label="X[45] <= 721.0\ngini = 0.32\nsamples = 5\nvalue = [4, 1]"] ;
396 -> 398 ;
399 [label="gini = 0.0\nsamples = 1\nvalue = [0, 1]"] ;
398 -> 399 ;
400 [label="gini = 0.0\nsamples = 4\nvalue = [4, 0]"] ;
398 -> 400 ;
401 [label="X[81] <= 55.5\ngini = 0.444\nsamples = 3\nvalue = [1, 2]"] ;
383 -> 401 ;
402 [label="gini = 0.0\nsamples = 1\nvalue = [1, 0]"] ;
401 -> 402 ;
403 [label="gini = 0.0\nsamples = 2\nvalue = [0, 2]"] ;
401 -> 403 ;
404 [label="X[57] <= 487.5\ngini = 0.472\nsamples = 1346\nvalue = [831, 515]"] ;
0 -> 404 [labeldistance=2.5, labelangle=-45, headlabel="False"] ;
405 [label="X[78] <= 1070.0\ngini = 0.492\nsamples = 408\nvalue = [179, 229]"] ;
404 -> 405 ;
406 [label="X[34] <= 3.5\ngini = 0.447\nsamples = 86\nvalue = [57, 29]"] ;
405 -> 406 ;
407 [label="X[8] <= 0.56\ngini = 0.348\nsamples = 58\nvalue = [45, 13]"] ;
406 -> 407 ;
408 [label="X[41] <= 485.0\ngini = 0.42\nsamples = 10\nvalue = [3, 7]"] ;
407 -> 408 ;
409 [label="gini = 0.0\nsamples = 6\nvalue = [0, 6]"] ;
408 -> 409 ;
410 [label="X[11] <= 92.5\ngini = 0.375\nsamples = 4\nvalue = [3, 1]"] ;
408 -> 410 ;
411 [label="gini = 0.0\nsamples = 3\nvalue = [3, 0]"] ;
410 -> 411 ;
412 [label="gini = 0.0\nsamples = 1\nvalue = [0, 1]"] ;
410 -> 412 ;
413 [label="X[12] <= 30.0\ngini = 0.219\nsamples = 48\nvalue = [42, 6]"] ;
407 -> 413 ;
414 [label="X[36] <= 9.5\ngini = 0.091\nsamples = 42\nvalue = [40, 2]"] ;
413 -> 414 ;
415 [label="gini = 0.0\nsamples = 39\nvalue = [39, 0]"] ;
414 -> 415 ;
416 [label="X[31] <= 7.5\ngini = 0.444\nsamples = 3\nvalue = [1, 2]"] ;
414 -> 416 ;
417 [label="gini = 0.0\nsamples = 1\nvalue = [1, 0]"] ;
416 -> 417 ;
418 [label="gini = 0.0\nsamples = 2\nvalue = [0, 2]"] ;
416 -> 418 ;
419 [label="X[5] <= 0.75\ngini = 0.444\nsamples = 6\nvalue = [2, 4]"] ;
413 -> 419 ;
420 [label="gini = 0.0\nsamples = 2\nvalue = [2, 0]"] ;
419 -> 420 ;
421 [label="gini = 0.0\nsamples = 4\nvalue = [0, 4]"] ;
419 -> 421 ;
422 [label="X[22] <= 55595.0\ngini = 0.49\nsamples = 28\nvalue = [12, 16]"] ;
406 -> 422 ;
423 [label="X[20] <= 169.5\ngini = 0.363\nsamples = 21\nvalue = [5, 16]"] ;
422 -> 423 ;
424 [label="X[28] <= 3.5\ngini = 0.5\nsamples = 10\nvalue = [5, 5]"] ;
423 -> 424 ;
425 [label="X[8] <= 0.735\ngini = 0.278\nsamples = 6\nvalue = [1, 5]"] ;
424 -> 425 ;
426 [label="gini = 0.0\nsamples = 1\nvalue = [1, 0]"] ;
425 -> 426 ;
427 [label="gini = 0.0\nsamples = 5\nvalue = [0, 5]"] ;
425 -> 427 ;
428 [label="gini = 0.0\nsamples = 4\nvalue = [4, 0]"] ;
424 -> 428 ;
429 [label="gini = 0.0\nsamples = 11\nvalue = [0, 11]"] ;
423 -> 429 ;
430 [label="gini = 0.0\nsamples = 7\nvalue = [7, 0]"] ;
422 -> 430 ;
431 [label="X[69] <= 53.5\ngini = 0.471\nsamples = 322\nvalue = [122, 200]"] ;
405 -> 431 ;
432 [label="X[12] <= 10.5\ngini = 0.498\nsamples = 227\nvalue = [107, 120]"] ;
431 -> 432 ;
433 [label="X[82] <= 10.5\ngini = 0.433\nsamples = 60\nvalue = [41, 19]"] ;
432 -> 433 ;
434 [label="X[22] <= 82340.0\ngini = 0.32\nsamples = 45\nvalue = [36, 9]"] ;
433 -> 434 ;
435 [label="X[64] <= 3.5\ngini = 0.165\nsamples = 33\nvalue = [30, 3]"] ;
434 -> 435 ;
436 [label="gini = 0.0\nsamples = 1\nvalue = [0, 1]"] ;
435 -> 436 ;
437 [label="X[72] <= 327.0\ngini = 0.117\nsamples = 32\nvalue = [30, 2]"] ;
435 -> 437 ;
438 [label="gini = 0.0\nsamples = 1\nvalue = [0, 1]"] ;
437 -> 438 ;
439 [label="X[15] <= 25910.0\ngini = 0.062\nsamples = 31\nvalue = [30, 1]"] ;
437 -> 439 ;
440 [label="gini = 0.0\nsamples = 29\nvalue = [29, 0]"] ;
439 -> 440 ;
441 [label="X[49] <= 79.5\ngini = 0.5\nsamples = 2\nvalue = [1, 1]"] ;
439 -> 441 ;
442 [label="gini = 0.0\nsamples = 1\nvalue = [0, 1]"] ;
441 -> 442 ;
443 [label="gini = 0.0\nsamples = 1\nvalue = [1, 0]"] ;
441 -> 443 ;
444 [label="X[22] <= 116360.0\ngini = 0.5\nsamples = 12\nvalue = [6, 6]"] ;
434 -> 444 ;
445 [label="X[58] <= 76.5\ngini = 0.245\nsamples = 7\nvalue = [1, 6]"] ;
444 -> 445 ;
446 [label="gini = 0.0\nsamples = 6\nvalue = [0, 6]"] ;
445 -> 446 ;
447 [label="gini = 0.0\nsamples = 1\nvalue = [1, 0]"] ;
445 -> 447 ;
448 [label="gini = 0.0\nsamples = 5\nvalue = [5, 0]"] ;
444 -> 448 ;
449 [label="X[74] <= 73.5\ngini = 0.444\nsamples = 15\nvalue = [5, 10]"] ;
433 -> 449 ;
450 [label="gini = 0.0\nsamples = 8\nvalue = [0, 8]"] ;
449 -> 450 ;
451 [label="X[78] <= 2154.0\ngini = 0.408\nsamples = 7\nvalue = [5, 2]"] ;
449 -> 451 ;
452 [label="gini = 0.0\nsamples = 5\nvalue = [5, 0]"] ;
451 -> 452 ;
453 [label="gini = 0.0\nsamples = 2\nvalue = [0, 2]"] ;
451 -> 453 ;
454 [label="X[29] <= 2.5\ngini = 0.478\nsamples = 167\nvalue = [66, 101]"] ;
432 -> 454 ;
455 [label="X[47] <= 3336.5\ngini = 0.32\nsamples = 40\nvalue = [8, 32]"] ;
454 -> 455 ;
456 [label="X[77] <= 2150.0\ngini = 0.202\nsamples = 35\nvalue = [4, 31]"] ;
455 -> 456 ;
457 [label="X[76] <= 3.5\ngini = 0.444\nsamples = 3\nvalue = [2, 1]"] ;
456 -> 457 ;
458 [label="gini = 0.0\nsamples = 2\nvalue = [2, 0]"] ;
457 -> 458 ;
459 [label="gini = 0.0\nsamples = 1\nvalue = [0, 1]"] ;
457 -> 459 ;
460 [label="X[83] <= 28200.0\ngini = 0.117\nsamples = 32\nvalue = [2, 30]"] ;
456 -> 460 ;
461 [label="X[69] <= 7.5\ngini = 0.062\nsamples = 31\nvalue = [1, 30]"] ;
460 -> 461 ;
462 [label="X[83] <= 6300.0\ngini = 0.5\nsamples = 2\nvalue = [1, 1]"] ;
461 -> 462 ;
463 [label="gini = 0.0\nsamples = 1\nvalue = [1, 0]"] ;
462 -> 463 ;
464 [label="gini = 0.0\nsamples = 1\nvalue = [0, 1]"] ;
462 -> 464 ;
465 [label="gini = 0.0\nsamples = 29\nvalue = [0, 29]"] ;
461 -> 465 ;
466 [label="gini = 0.0\nsamples = 1\nvalue = [1, 0]"] ;
460 -> 466 ;
467 [label="X[59] <= 61.0\ngini = 0.32\nsamples = 5\nvalue = [4, 1]"] ;
455 -> 467 ;
468 [label="gini = 0.0\nsamples = 4\nvalue = [4, 0]"] ;
467 -> 468 ;
469 [label="gini = 0.0\nsamples = 1\nvalue = [0, 1]"] ;
467 -> 469 ;
470 [label="X[85] <= 28.5\ngini = 0.496\nsamples = 127\nvalue = [58, 69]"] ;
454 -> 470 ;
471 [label="X[49] <= 74.5\ngini = 0.499\nsamples = 104\nvalue = [54, 50]"] ;
470 -> 471 ;
472 [label="X[70] <= 1.5\ngini = 0.422\nsamples = 33\nvalue = [10, 23]"] ;
471 -> 472 ;
473 [label="X[84] <= 7945.5\ngini = 0.358\nsamples = 30\nvalue = [7, 23]"] ;
472 -> 473 ;
474 [label="X[12] <= 56.5\ngini = 0.1\nsamples = 19\nvalue = [1, 18]"] ;
473 -> 474 ;
475 [label="gini = 0.0\nsamples = 18\nvalue = [0, 18]"] ;
474 -> 475 ;
476 [label="gini = 0.0\nsamples = 1\nvalue = [1, 0]"] ;
474 -> 476 ;
477 [label="X[57] <= 480.0\ngini = 0.496\nsamples = 11\nvalue = [6, 5]"] ;
473 -> 477 ;
478 [label="X[20] <= 197.5\ngini = 0.408\nsamples = 7\nvalue = [2, 5]"] ;
477 -> 478 ;
479 [label="gini = 0.0\nsamples = 5\nvalue = [0, 5]"] ;
478 -> 479 ;
480 [label="gini = 0.0\nsamples = 2\nvalue = [2, 0]"] ;
478 -> 480 ;
481 [label="gini = 0.0\nsamples = 4\nvalue = [4, 0]"] ;
477 -> 481 ;
482 [label="gini = 0.0\nsamples = 3\nvalue = [3, 0]"] ;
472 -> 482 ;
483 [label="X[55] <= 8.5\ngini = 0.471\nsamples = 71\nvalue = [44, 27]"] ;
471 -> 483 ;
484 [label="X[11] <= 41.0\ngini = 0.278\nsamples = 30\nvalue = [25, 5]"] ;
483 -> 484 ;
485 [label="X[80] <= 82.5\ngini = 0.083\nsamples = 23\nvalue = [22, 1]"] ;
484 -> 485 ;
486 [label="gini = 0.0\nsamples = 22\nvalue = [22, 0]"] ;
485 -> 486 ;
487 [label="gini = 0.0\nsamples = 1\nvalue = [0, 1]"] ;
485 -> 487 ;
488 [label="X[85] <= 17.5\ngini = 0.49\nsamples = 7\nvalue = [3, 4]"] ;
484 -> 488 ;
489 [label="gini = 0.0\nsamples = 4\nvalue = [0, 4]"] ;
488 -> 489 ;
490 [label="gini = 0.0\nsamples = 3\nvalue = [3, 0]"] ;
488 -> 490 ;
491 [label="X[26] <= 1300.0\ngini = 0.497\nsamples = 41\nvalue = [19, 22]"] ;
483 -> 491 ;
492 [label="X[86] <= 64.0\ngini = 0.451\nsamples = 32\nvalue = [11, 21]"] ;
491 -> 492 ;
493 [label="X[69] <= 24.0\ngini = 0.298\nsamples = 22\nvalue = [4, 18]"] ;
492 -> 493 ;
494 [label="X[47] <= 3288.5\ngini = 0.49\nsamples = 7\nvalue = [4, 3]"] ;
493 -> 494 ;
495 [label="gini = 0.0\nsamples = 4\nvalue = [4, 0]"] ;
494 -> 495 ;
496 [label="gini = 0.0\nsamples = 3\nvalue = [0, 3]"] ;
494 -> 496 ;
497 [label="gini = 0.0\nsamples = 15\nvalue = [0, 15]"] ;
493 -> 497 ;
498 [label="X[78] <= 1684.0\ngini = 0.42\nsamples = 10\nvalue = [7, 3]"] ;
492 -> 498 ;
499 [label="X[4] <= 0.005\ngini = 0.375\nsamples = 4\nvalue = [1, 3]"] ;
498 -> 499 ;
500 [label="gini = 0.0\nsamples = 1\nvalue = [1, 0]"] ;
499 -> 500 ;
501 [label="gini = 0.0\nsamples = 3\nvalue = [0, 3]"] ;
499 -> 501 ;
502 [label="gini = 0.0\nsamples = 6\nvalue = [6, 0]"] ;
498 -> 502 ;
503 [label="X[19] <= 469915.0\ngini = 0.198\nsamples = 9\nvalue = [8, 1]"] ;
491 -> 503 ;
504 [label="gini = 0.0\nsamples = 8\nvalue = [8, 0]"] ;
503 -> 504 ;
505 [label="gini = 0.0\nsamples = 1\nvalue = [0, 1]"] ;
503 -> 505 ;
506 [label="X[20] <= 87.5\ngini = 0.287\nsamples = 23\nvalue = [4, 19]"] ;
470 -> 506 ;
507 [label="X[0] <= 7328.5\ngini = 0.375\nsamples = 4\nvalue = [3, 1]"] ;
506 -> 507 ;
508 [label="gini = 0.0\nsamples = 3\nvalue = [3, 0]"] ;
507 -> 508 ;
509 [label="gini = 0.0\nsamples = 1\nvalue = [0, 1]"] ;
507 -> 509 ;
510 [label="X[21] <= 0.175\ngini = 0.1\nsamples = 19\nvalue = [1, 18]"] ;
506 -> 510 ;
511 [label="gini = 0.0\nsamples = 1\nvalue = [1, 0]"] ;
510 -> 511 ;
512 [label="gini = 0.0\nsamples = 18\nvalue = [0, 18]"] ;
510 -> 512 ;
513 [label="X[62] <= 19.5\ngini = 0.266\nsamples = 95\nvalue = [15, 80]"] ;
431 -> 513 ;
514 [label="X[46] <= 170.0\ngini = 0.043\nsamples = 45\nvalue = [1, 44]"] ;
513 -> 514 ;
515 [label="gini = 0.0\nsamples = 44\nvalue = [0, 44]"] ;
514 -> 515 ;
516 [label="gini = 0.0\nsamples = 1\nvalue = [1, 0]"] ;
514 -> 516 ;
517 [label="X[39] <= 6.5\ngini = 0.403\nsamples = 50\nvalue = [14, 36]"] ;
513 -> 517 ;
518 [label="X[84] <= 6980.0\ngini = 0.346\nsamples = 9\nvalue = [7, 2]"] ;
517 -> 518 ;
519 [label="X[39] <= 4.5\ngini = 0.444\nsamples = 3\nvalue = [1, 2]"] ;
518 -> 519 ;
520 [label="gini = 0.0\nsamples = 2\nvalue = [0, 2]"] ;
519 -> 520 ;
521 [label="gini = 0.0\nsamples = 1\nvalue = [1, 0]"] ;
519 -> 521 ;
522 [label="gini = 0.0\nsamples = 6\nvalue = [6, 0]"] ;
518 -> 522 ;
523 [label="X[82] <= 10.5\ngini = 0.283\nsamples = 41\nvalue = [7, 34]"] ;
517 -> 523 ;
524 [label="gini = 0.0\nsamples = 24\nvalue = [0, 24]"] ;
523 -> 524 ;
525 [label="X[57] <= 471.5\ngini = 0.484\nsamples = 17\nvalue = [7, 10]"] ;
523 -> 525 ;
526 [label="X[74] <= 76.0\ngini = 0.198\nsamples = 9\nvalue = [1, 8]"] ;
525 -> 526 ;
527 [label="gini = 0.0\nsamples = 8\nvalue = [0, 8]"] ;
526 -> 527 ;
528 [label="gini = 0.0\nsamples = 1\nvalue = [1, 0]"] ;
526 -> 528 ;
529 [label="X[72] <= 357.0\ngini = 0.375\nsamples = 8\nvalue = [6, 2]"] ;
525 -> 529 ;
530 [label="gini = 0.0\nsamples = 6\nvalue = [6, 0]"] ;
529 -> 530 ;
531 [label="gini = 0.0\nsamples = 2\nvalue = [0, 2]"] ;
529 -> 531 ;
532 [label="X[46] <= 84.5\ngini = 0.424\nsamples = 938\nvalue = [652, 286]"] ;
404 -> 532 ;
533 [label="X[69] <= 5.5\ngini = 0.371\nsamples = 634\nvalue = [478, 156]"] ;
532 -> 533 ;
534 [label="X[56] <= 33.0\ngini = 0.199\nsamples = 125\nvalue = [111, 14]"] ;
533 -> 534 ;
535 [label="X[6] <= 3750.0\ngini = 0.176\nsamples = 123\nvalue = [111, 12]"] ;
534 -> 535 ;
536 [label="X[15] <= 329985.0\ngini = 0.12\nsamples = 109\nvalue = [102, 7]"] ;
535 -> 536 ;
537 [label="X[72] <= 194.5\ngini = 0.105\nsamples = 108\nvalue = [102, 6]"] ;
536 -> 537 ;
538 [label="gini = 0.0\nsamples = 1\nvalue = [0, 1]"] ;
537 -> 538 ;
539 [label="X[38] <= 85.0\ngini = 0.089\nsamples = 107\nvalue = [102, 5]"] ;
537 -> 539 ;
540 [label="X[10] <= 12.0\ngini = 0.5\nsamples = 4\nvalue = [2, 2]"] ;
539 -> 540 ;
541 [label="gini = 0.0\nsamples = 2\nvalue = [2, 0]"] ;
540 -> 541 ;
542 [label="gini = 0.0\nsamples = 2\nvalue = [0, 2]"] ;
540 -> 542 ;
543 [label="X[39] <= 1.5\ngini = 0.057\nsamples = 103\nvalue = [100, 3]"] ;
539 -> 543 ;
544 [label="gini = 0.0\nsamples = 1\nvalue = [0, 1]"] ;
543 -> 544 ;
545 [label="X[42] <= 37630.0\ngini = 0.038\nsamples = 102\nvalue = [100, 2]"] ;
543 -> 545 ;
546 [label="gini = 0.0\nsamples = 87\nvalue = [87, 0]"] ;
545 -> 546 ;
547 [label="X[18] <= 20161176.0\ngini = 0.231\nsamples = 15\nvalue = [13, 2]"] ;
545 -> 547 ;
548 [label="gini = 0.0\nsamples = 13\nvalue = [13, 0]"] ;
547 -> 548 ;
549 [label="gini = 0.0\nsamples = 2\nvalue = [0, 2]"] ;
547 -> 549 ;
550 [label="gini = 0.0\nsamples = 1\nvalue = [0, 1]"] ;
536 -> 550 ;
551 [label="X[7] <= 1.295\ngini = 0.459\nsamples = 14\nvalue = [9, 5]"] ;
535 -> 551 ;
552 [label="gini = 0.0\nsamples = 8\nvalue = [8, 0]"] ;
551 -> 552 ;
553 [label="X[41] <= 5745.0\ngini = 0.278\nsamples = 6\nvalue = [1, 5]"] ;
551 -> 553 ;
554 [label="gini = 0.0\nsamples = 5\nvalue = [0, 5]"] ;
553 -> 554 ;
555 [label="gini = 0.0\nsamples = 1\nvalue = [1, 0]"] ;
553 -> 555 ;
556 [label="gini = 0.0\nsamples = 2\nvalue = [0, 2]"] ;
534 -> 556 ;
557 [label="X[68] <= 77.5\ngini = 0.402\nsamples = 509\nvalue = [367, 142]"] ;
533 -> 557 ;
558 [label="X[61] <= 1.5\ngini = 0.444\nsamples = 375\nvalue = [250, 125]"] ;
557 -> 558 ;
559 [label="X[80] <= 72.5\ngini = 0.359\nsamples = 166\nvalue = [127, 39]"] ;
558 -> 559 ;
560 [label="X[59] <= 22.0\ngini = 0.245\nsamples = 7\nvalue = [1, 6]"] ;
559 -> 560 ;
561 [label="gini = 0.0\nsamples = 1\nvalue = [1, 0]"] ;
560 -> 561 ;
562 [label="gini = 0.0\nsamples = 6\nvalue = [0, 6]"] ;
560 -> 562 ;
563 [label="X[17] <= 42.5\ngini = 0.329\nsamples = 159\nvalue = [126, 33]"] ;
559 -> 563 ;
564 [label="X[51] <= 0.5\ngini = 0.301\nsamples = 152\nvalue = [124, 28]"] ;
563 -> 564 ;
565 [label="gini = 0.0\nsamples = 2\nvalue = [0, 2]"] ;
564 -> 565 ;
566 [label="X[32] <= 41.5\ngini = 0.287\nsamples = 150\nvalue = [124, 26]"] ;
564 -> 566 ;
567 [label="X[24] <= 1670.0\ngini = 0.272\nsamples = 148\nvalue = [124, 24]"] ;
566 -> 567 ;
568 [label="X[24] <= 770.0\ngini = 0.444\nsamples = 30\nvalue = [20, 10]"] ;
567 -> 568 ;
569 [label="gini = 0.0\nsamples = 11\nvalue = [11, 0]"] ;
568 -> 569 ;
570 [label="X[38] <= 1150.0\ngini = 0.499\nsamples = 19\nvalue = [9, 10]"] ;
568 -> 570 ;
571 [label="gini = 0.0\nsamples = 6\nvalue = [0, 6]"] ;
570 -> 571 ;
572 [label="X[17] <= 29.0\ngini = 0.426\nsamples = 13\nvalue = [9, 4]"] ;
570 -> 572 ;
573 [label="X[80] <= 74.5\ngini = 0.18\nsamples = 10\nvalue = [9, 1]"] ;
572 -> 573 ;
574 [label="gini = 0.0\nsamples = 1\nvalue = [0, 1]"] ;
573 -> 574 ;
575 [label="gini = 0.0\nsamples = 9\nvalue = [9, 0]"] ;
573 -> 575 ;
576 [label="gini = 0.0\nsamples = 3\nvalue = [0, 3]"] ;
572 -> 576 ;
577 [label="X[77] <= 5600.0\ngini = 0.209\nsamples = 118\nvalue = [104, 14]"] ;
567 -> 577 ;
578 [label="X[60] <= 4.5\ngini = 0.165\nsamples = 110\nvalue = [100, 10]"] ;
577 -> 578 ;
579 [label="gini = 0.0\nsamples = 1\nvalue = [0, 1]"] ;
578 -> 579 ;
580 [label="X[59] <= 71.0\ngini = 0.152\nsamples = 109\nvalue = [100, 9]"] ;
578 -> 580 ;
581 [label="X[20] <= 256.5\ngini = 0.137\nsamples = 108\nvalue = [100, 8]"] ;
580 -> 581 ;
582 [label="X[47] <= 226.5\ngini = 0.067\nsamples = 87\nvalue = [84, 3]"] ;
581 -> 582 ;
583 [label="X[29] <= 14.0\ngini = 0.5\nsamples = 2\nvalue = [1, 1]"] ;
582 -> 583 ;
584 [label="gini = 0.0\nsamples = 1\nvalue = [1, 0]"] ;
583 -> 584 ;
585 [label="gini = 0.0\nsamples = 1\nvalue = [0, 1]"] ;
583 -> 585 ;
586 [label="X[57] <= 488.5\ngini = 0.046\nsamples = 85\nvalue = [83, 2]"] ;
582 -> 586 ;
587 [label="X[32] <= 19.0\ngini = 0.5\nsamples = 2\nvalue = [1, 1]"] ;
586 -> 587 ;
588 [label="gini = 0.0\nsamples = 1\nvalue = [0, 1]"] ;
587 -> 588 ;
589 [label="gini = 0.0\nsamples = 1\nvalue = [1, 0]"] ;
587 -> 589 ;
590 [label="X[1] <= 303909.0\ngini = 0.024\nsamples = 83\nvalue = [82, 1]"] ;
586 -> 590 ;
591 [label="X[18] <= 20161016.0\ngini = 0.5\nsamples = 2\nvalue = [1, 1]"] ;
590 -> 591 ;
592 [label="gini = 0.0\nsamples = 1\nvalue = [0, 1]"] ;
591 -> 592 ;
593 [label="gini = 0.0\nsamples = 1\nvalue = [1, 0]"] ;
591 -> 593 ;
594 [label="gini = 0.0\nsamples = 81\nvalue = [81, 0]"] ;
590 -> 594 ;
595 [label="X[68] <= 53.0\ngini = 0.363\nsamples = 21\nvalue = [16, 5]"] ;
581 -> 595 ;
596 [label="X[64] <= 7.5\ngini = 0.494\nsamples = 9\nvalue = [4, 5]"] ;
595 -> 596 ;
597 [label="gini = 0.0\nsamples = 4\nvalue = [4, 0]"] ;
596 -> 597 ;
598 [label="gini = 0.0\nsamples = 5\nvalue = [0, 5]"] ;
596 -> 598 ;
599 [label="gini = 0.0\nsamples = 12\nvalue = [12, 0]"] ;
595 -> 599 ;
600 [label="gini = 0.0\nsamples = 1\nvalue = [0, 1]"] ;
580 -> 600 ;
601 [label="X[49] <= 77.5\ngini = 0.5\nsamples = 8\nvalue = [4, 4]"] ;
577 -> 601 ;
602 [label="gini = 0.0\nsamples = 4\nvalue = [4, 0]"] ;
601 -> 602 ;
603 [label="gini = 0.0\nsamples = 4\nvalue = [0, 4]"] ;
601 -> 603 ;
604 [label="gini = 0.0\nsamples = 2\nvalue = [0, 2]"] ;
566 -> 604 ;
605 [label="X[63] <= 7.5\ngini = 0.408\nsamples = 7\nvalue = [2, 5]"] ;
563 -> 605 ;
606 [label="gini = 0.0\nsamples = 5\nvalue = [0, 5]"] ;
605 -> 606 ;
607 [label="gini = 0.0\nsamples = 2\nvalue = [2, 0]"] ;
605 -> 607 ;
608 [label="X[19] <= 121420.0\ngini = 0.484\nsamples = 209\nvalue = [123, 86]"] ;
558 -> 608 ;
609 [label="X[1] <= 1765856.0\ngini = 0.45\nsamples = 38\nvalue = [13, 25]"] ;
608 -> 609 ;
610 [label="X[80] <= 80.5\ngini = 0.397\nsamples = 11\nvalue = [8, 3]"] ;
609 -> 610 ;
611 [label="gini = 0.0\nsamples = 7\nvalue = [7, 0]"] ;
610 -> 611 ;
612 [label="X[7] <= 0.925\ngini = 0.375\nsamples = 4\nvalue = [1, 3]"] ;
610 -> 612 ;
613 [label="gini = 0.0\nsamples = 1\nvalue = [1, 0]"] ;
612 -> 613 ;
614 [label="gini = 0.0\nsamples = 3\nvalue = [0, 3]"] ;
612 -> 614 ;
615 [label="X[84] <= 3075.0\ngini = 0.302\nsamples = 27\nvalue = [5, 22]"] ;
609 -> 615 ;
616 [label="X[38] <= 540.0\ngini = 0.375\nsamples = 4\nvalue = [3, 1]"] ;
615 -> 616 ;
617 [label="gini = 0.0\nsamples = 1\nvalue = [0, 1]"] ;
616 -> 617 ;
618 [label="gini = 0.0\nsamples = 3\nvalue = [3, 0]"] ;
616 -> 618 ;
619 [label="X[58] <= 71.5\ngini = 0.159\nsamples = 23\nvalue = [2, 21]"] ;
615 -> 619 ;
620 [label="gini = 0.0\nsamples = 1\nvalue = [1, 0]"] ;
619 -> 620 ;
621 [label="X[32] <= 12.5\ngini = 0.087\nsamples = 22\nvalue = [1, 21]"] ;
619 -> 621 ;
622 [label="X[22] <= 20735.0\ngini = 0.375\nsamples = 4\nvalue = [1, 3]"] ;
621 -> 622 ;
623 [label="gini = 0.0\nsamples = 1\nvalue = [1, 0]"] ;
622 -> 623 ;
624 [label="gini = 0.0\nsamples = 3\nvalue = [0, 3]"] ;
622 -> 624 ;
625 [label="gini = 0.0\nsamples = 18\nvalue = [0, 18]"] ;
621 -> 625 ;
626 [label="X[37] <= 50.0\ngini = 0.459\nsamples = 171\nvalue = [110, 61]"] ;
608 -> 626 ;
627 [label="X[68] <= 32.5\ngini = 0.323\nsamples = 74\nvalue = [59, 15]"] ;
626 -> 627 ;
628 [label="X[5] <= 0.975\ngini = 0.49\nsamples = 14\nvalue = [6, 8]"] ;
627 -> 628 ;
629 [label="gini = 0.0\nsamples = 7\nvalue = [0, 7]"] ;
628 -> 629 ;
630 [label="X[48] <= 570.5\ngini = 0.245\nsamples = 7\nvalue = [6, 1]"] ;
628 -> 630 ;
631 [label="gini = 0.0\nsamples = 6\nvalue = [6, 0]"] ;
630 -> 631 ;
632 [label="gini = 0.0\nsamples = 1\nvalue = [0, 1]"] ;
630 -> 632 ;
633 [label="X[50] <= 32.5\ngini = 0.206\nsamples = 60\nvalue = [53, 7]"] ;
627 -> 633 ;
634 [label="X[19] <= 776385.0\ngini = 0.16\nsamples = 57\nvalue = [52, 5]"] ;
633 -> 634 ;
635 [label="X[34] <= 4.5\ngini = 0.133\nsamples = 56\nvalue = [52, 4]"] ;
634 -> 635 ;
636 [label="X[0] <= 11822.0\ngini = 0.042\nsamples = 47\nvalue = [46, 1]"] ;
635 -> 636 ;
637 [label="gini = 0.0\nsamples = 45\nvalue = [45, 0]"] ;
636 -> 637 ;
638 [label="X[76] <= 12.0\ngini = 0.5\nsamples = 2\nvalue = [1, 1]"] ;
636 -> 638 ;
639 [label="gini = 0.0\nsamples = 1\nvalue = [1, 0]"] ;
638 -> 639 ;
640 [label="gini = 0.0\nsamples = 1\nvalue = [0, 1]"] ;
638 -> 640 ;
641 [label="X[1] <= 2447739.0\ngini = 0.444\nsamples = 9\nvalue = [6, 3]"] ;
635 -> 641 ;
642 [label="gini = 0.0\nsamples = 6\nvalue = [6, 0]"] ;
641 -> 642 ;
643 [label="gini = 0.0\nsamples = 3\nvalue = [0, 3]"] ;
641 -> 643 ;
644 [label="gini = 0.0\nsamples = 1\nvalue = [0, 1]"] ;
634 -> 644 ;
645 [label="X[12] <= 14.5\ngini = 0.444\nsamples = 3\nvalue = [1, 2]"] ;
633 -> 645 ;
646 [label="gini = 0.0\nsamples = 1\nvalue = [1, 0]"] ;
645 -> 646 ;
647 [label="gini = 0.0\nsamples = 2\nvalue = [0, 2]"] ;
645 -> 647 ;
648 [label="X[37] <= 292.0\ngini = 0.499\nsamples = 97\nvalue = [51, 46]"] ;
626 -> 648 ;
649 [label="X[32] <= 10.0\ngini = 0.133\nsamples = 14\nvalue = [1, 13]"] ;
648 -> 649 ;
650 [label="gini = 0.0\nsamples = 1\nvalue = [1, 0]"] ;
649 -> 650 ;
651 [label="gini = 0.0\nsamples = 13\nvalue = [0, 13]"] ;
649 -> 651 ;
652 [label="X[52] <= 5.5\ngini = 0.479\nsamples = 83\nvalue = [50, 33]"] ;
648 -> 652 ;
653 [label="X[50] <= 8.5\ngini = 0.499\nsamples = 56\nvalue = [27, 29]"] ;
652 -> 653 ;
654 [label="X[83] <= 7200.0\ngini = 0.153\nsamples = 12\nvalue = [11, 1]"] ;
653 -> 654 ;
655 [label="gini = 0.0\nsamples = 1\nvalue = [0, 1]"] ;
654 -> 655 ;
656 [label="gini = 0.0\nsamples = 11\nvalue = [11, 0]"] ;
654 -> 656 ;
657 [label="X[9] <= 0.388\ngini = 0.463\nsamples = 44\nvalue = [16, 28]"] ;
653 -> 657 ;
658 [label="X[85] <= 2.5\ngini = 0.32\nsamples = 10\nvalue = [8, 2]"] ;
657 -> 658 ;
659 [label="gini = 0.0\nsamples = 2\nvalue = [0, 2]"] ;
658 -> 659 ;
660 [label="gini = 0.0\nsamples = 8\nvalue = [8, 0]"] ;
658 -> 660 ;
661 [label="X[31] <= 4.5\ngini = 0.36\nsamples = 34\nvalue = [8, 26]"] ;
657 -> 661 ;
662 [label="gini = 0.0\nsamples = 4\nvalue = [4, 0]"] ;
661 -> 662 ;
663 [label="X[57] <= 555.0\ngini = 0.231\nsamples = 30\nvalue = [4, 26]"] ;
661 -> 663 ;
664 [label="X[13] <= 1.5\ngini = 0.074\nsamples = 26\nvalue = [1, 25]"] ;
663 -> 664 ;
665 [label="gini = 0.0\nsamples = 1\nvalue = [1, 0]"] ;
664 -> 665 ;
666 [label="gini = 0.0\nsamples = 25\nvalue = [0, 25]"] ;
664 -> 666 ;
667 [label="X[62] <= 21.0\ngini = 0.375\nsamples = 4\nvalue = [3, 1]"] ;
663 -> 667 ;
668 [label="gini = 0.0\nsamples = 1\nvalue = [0, 1]"] ;
667 -> 668 ;
669 [label="gini = 0.0\nsamples = 3\nvalue = [3, 0]"] ;
667 -> 669 ;
670 [label="X[80] <= 74.5\ngini = 0.252\nsamples = 27\nvalue = [23, 4]"] ;
652 -> 670 ;
671 [label="gini = 0.0\nsamples = 2\nvalue = [0, 2]"] ;
670 -> 671 ;
672 [label="X[49] <= 78.5\ngini = 0.147\nsamples = 25\nvalue = [23, 2]"] ;
670 -> 672 ;
673 [label="gini = 0.0\nsamples = 22\nvalue = [22, 0]"] ;
672 -> 673 ;
674 [label="X[9] <= 0.483\ngini = 0.444\nsamples = 3\nvalue = [1, 2]"] ;
672 -> 674 ;
675 [label="gini = 0.0\nsamples = 2\nvalue = [0, 2]"] ;
674 -> 675 ;
676 [label="gini = 0.0\nsamples = 1\nvalue = [1, 0]"] ;
674 -> 676 ;
677 [label="X[48] <= 506.0\ngini = 0.222\nsamples = 134\nvalue = [117, 17]"] ;
557 -> 677 ;
678 [label="gini = 0.0\nsamples = 2\nvalue = [0, 2]"] ;
677 -> 678 ;
679 [label="X[47] <= 1045.5\ngini = 0.201\nsamples = 132\nvalue = [117, 15]"] ;
677 -> 679 ;
680 [label="X[24] <= 2405.0\ngini = 0.408\nsamples = 28\nvalue = [20, 8]"] ;
679 -> 680 ;
681 [label="gini = 0.0\nsamples = 4\nvalue = [0, 4]"] ;
680 -> 681 ;
682 [label="X[79] <= 11450.0\ngini = 0.278\nsamples = 24\nvalue = [20, 4]"] ;
680 -> 682 ;
683 [label="X[57] <= 492.5\ngini = 0.095\nsamples = 20\nvalue = [19, 1]"] ;
682 -> 683 ;
684 [label="gini = 0.0\nsamples = 1\nvalue = [0, 1]"] ;
683 -> 684 ;
685 [label="gini = 0.0\nsamples = 19\nvalue = [19, 0]"] ;
683 -> 685 ;
686 [label="X[35] <= 6.5\ngini = 0.375\nsamples = 4\nvalue = [1, 3]"] ;
682 -> 686 ;
687 [label="gini = 0.0\nsamples = 1\nvalue = [1, 0]"] ;
686 -> 687 ;
688 [label="gini = 0.0\nsamples = 3\nvalue = [0, 3]"] ;
686 -> 688 ;
689 [label="X[17] <= 62.0\ngini = 0.126\nsamples = 104\nvalue = [97, 7]"] ;
679 -> 689 ;
690 [label="X[24] <= 21780.0\ngini = 0.11\nsamples = 103\nvalue = [97, 6]"] ;
689 -> 690 ;
691 [label="X[50] <= 35.5\ngini = 0.061\nsamples = 95\nvalue = [92, 3]"] ;
690 -> 691 ;
692 [label="X[54] <= 18.0\ngini = 0.042\nsamples = 93\nvalue = [91, 2]"] ;
691 -> 692 ;
693 [label="gini = 0.0\nsamples = 86\nvalue = [86, 0]"] ;
692 -> 693 ;
694 [label="X[51] <= 10.5\ngini = 0.408\nsamples = 7\nvalue = [5, 2]"] ;
692 -> 694 ;
695 [label="gini = 0.0\nsamples = 2\nvalue = [0, 2]"] ;
694 -> 695 ;
696 [label="gini = 0.0\nsamples = 5\nvalue = [5, 0]"] ;
694 -> 696 ;
697 [label="X[83] <= 16800.0\ngini = 0.5\nsamples = 2\nvalue = [1, 1]"] ;
691 -> 697 ;
698 [label="gini = 0.0\nsamples = 1\nvalue = [1, 0]"] ;
697 -> 698 ;
699 [label="gini = 0.0\nsamples = 1\nvalue = [0, 1]"] ;
697 -> 699 ;
700 [label="X[41] <= 2195.0\ngini = 0.469\nsamples = 8\nvalue = [5, 3]"] ;
690 -> 700 ;
701 [label="X[76] <= 16.5\ngini = 0.375\nsamples = 4\nvalue = [1, 3]"] ;
700 -> 701 ;
702 [label="gini = 0.0\nsamples = 1\nvalue = [1, 0]"] ;
701 -> 702 ;
703 [label="gini = 0.0\nsamples = 3\nvalue = [0, 3]"] ;
701 -> 703 ;
704 [label="gini = 0.0\nsamples = 4\nvalue = [4, 0]"] ;
700 -> 704 ;
705 [label="gini = 0.0\nsamples = 1\nvalue = [0, 1]"] ;
689 -> 705 ;
706 [label="X[69] <= 22.5\ngini = 0.49\nsamples = 304\nvalue = [174, 130]"] ;
532 -> 706 ;
707 [label="X[60] <= 10.5\ngini = 0.443\nsamples = 211\nvalue = [141, 70]"] ;
706 -> 707 ;
708 [label="X[1] <= 3535475.0\ngini = 0.493\nsamples = 52\nvalue = [23, 29]"] ;
707 -> 708 ;
709 [label="X[74] <= 74.5\ngini = 0.466\nsamples = 46\nvalue = [17, 29]"] ;
708 -> 709 ;
710 [label="X[51] <= 2.5\ngini = 0.5\nsamples = 33\nvalue = [17, 16]"] ;
709 -> 710 ;
711 [label="X[38] <= 15.0\ngini = 0.26\nsamples = 13\nvalue = [11, 2]"] ;
710 -> 711 ;
712 [label="gini = 0.0\nsamples = 2\nvalue = [0, 2]"] ;
711 -> 712 ;
713 [label="gini = 0.0\nsamples = 11\nvalue = [11, 0]"] ;
711 -> 713 ;
714 [label="X[41] <= 155.0\ngini = 0.42\nsamples = 20\nvalue = [6, 14]"] ;
710 -> 714 ;
715 [label="X[0] <= 2040.5\ngini = 0.219\nsamples = 16\nvalue = [2, 14]"] ;
714 -> 715 ;
716 [label="gini = 0.0\nsamples = 2\nvalue = [2, 0]"] ;
715 -> 716 ;
717 [label="gini = 0.0\nsamples = 14\nvalue = [0, 14]"] ;
715 -> 717 ;
718 [label="gini = 0.0\nsamples = 4\nvalue = [4, 0]"] ;
714 -> 718 ;
719 [label="gini = 0.0\nsamples = 13\nvalue = [0, 13]"] ;
709 -> 719 ;
720 [label="gini = 0.0\nsamples = 6\nvalue = [6, 0]"] ;
708 -> 720 ;
721 [label="X[15] <= 10680.0\ngini = 0.383\nsamples = 159\nvalue = [118, 41]"] ;
707 -> 721 ;
722 [label="X[1] <= 467437.5\ngini = 0.225\nsamples = 62\nvalue = [54, 8]"] ;
721 -> 722 ;
723 [label="X[8] <= 0.935\ngini = 0.494\nsamples = 9\nvalue = [5, 4]"] ;
722 -> 723 ;
724 [label="gini = 0.0\nsamples = 4\nvalue = [0, 4]"] ;
723 -> 724 ;
725 [label="gini = 0.0\nsamples = 5\nvalue = [5, 0]"] ;
723 -> 725 ;
726 [label="X[48] <= 664.0\ngini = 0.14\nsamples = 53\nvalue = [49, 4]"] ;
722 -> 726 ;
727 [label="X[37] <= 1498620.5\ngini = 0.109\nsamples = 52\nvalue = [49, 3]"] ;
726 -> 727 ;
728 [label="X[80] <= 70.5\ngini = 0.075\nsamples = 51\nvalue = [49, 2]"] ;
727 -> 728 ;
729 [label="X[82] <= 2.5\ngini = 0.5\nsamples = 2\nvalue = [1, 1]"] ;
728 -> 729 ;
730 [label="gini = 0.0\nsamples = 1\nvalue = [1, 0]"] ;
729 -> 730 ;
731 [label="gini = 0.0\nsamples = 1\nvalue = [0, 1]"] ;
729 -> 731 ;
732 [label="X[6] <= 11500.0\ngini = 0.04\nsamples = 49\nvalue = [48, 1]"] ;
728 -> 732 ;
733 [label="gini = 0.0\nsamples = 47\nvalue = [47, 0]"] ;
732 -> 733 ;
734 [label="X[59] <= 18.5\ngini = 0.5\nsamples = 2\nvalue = [1, 1]"] ;
732 -> 734 ;
735 [label="gini = 0.0\nsamples = 1\nvalue = [0, 1]"] ;
734 -> 735 ;
736 [label="gini = 0.0\nsamples = 1\nvalue = [1, 0]"] ;
734 -> 736 ;
737 [label="gini = 0.0\nsamples = 1\nvalue = [0, 1]"] ;
727 -> 737 ;
738 [label="gini = 0.0\nsamples = 1\nvalue = [0, 1]"] ;
726 -> 738 ;
739 [label="X[46] <= 107.5\ngini = 0.449\nsamples = 97\nvalue = [64, 33]"] ;
721 -> 739 ;
740 [label="X[32] <= 39.0\ngini = 0.405\nsamples = 85\nvalue = [61, 24]"] ;
739 -> 740 ;
741 [label="X[69] <= 15.5\ngini = 0.365\nsamples = 79\nvalue = [60, 19]"] ;
740 -> 741 ;
742 [label="X[49] <= 76.5\ngini = 0.278\nsamples = 60\nvalue = [50, 10]"] ;
741 -> 742 ;
743 [label="X[37] <= 1013833.5\ngini = 0.061\nsamples = 32\nvalue = [31, 1]"] ;
742 -> 743 ;
744 [label="gini = 0.0\nsamples = 29\nvalue = [29, 0]"] ;
743 -> 744 ;
745 [label="X[10] <= 19.5\ngini = 0.444\nsamples = 3\nvalue = [2, 1]"] ;
743 -> 745 ;
746 [label="gini = 0.0\nsamples = 1\nvalue = [0, 1]"] ;
745 -> 746 ;
747 [label="gini = 0.0\nsamples = 2\nvalue = [2, 0]"] ;
745 -> 747 ;
748 [label="X[24] <= 1105.0\ngini = 0.436\nsamples = 28\nvalue = [19, 9]"] ;
742 -> 748 ;
749 [label="gini = 0.0\nsamples = 3\nvalue = [0, 3]"] ;
748 -> 749 ;
750 [label="X[72] <= 355.5\ngini = 0.365\nsamples = 25\nvalue = [19, 6]"] ;
748 -> 750 ;
751 [label="X[53] <= 27.0\ngini = 0.111\nsamples = 17\nvalue = [16, 1]"] ;
750 -> 751 ;
752 [label="gini = 0.0\nsamples = 16\nvalue = [16, 0]"] ;
751 -> 752 ;
753 [label="gini = 0.0\nsamples = 1\nvalue = [0, 1]"] ;
751 -> 753 ;
754 [label="X[38] <= 2960.0\ngini = 0.469\nsamples = 8\nvalue = [3, 5]"] ;
750 -> 754 ;
755 [label="X[12] <= 27.0\ngini = 0.278\nsamples = 6\nvalue = [1, 5]"] ;
754 -> 755 ;
756 [label="gini = 0.0\nsamples = 5\nvalue = [0, 5]"] ;
755 -> 756 ;
757 [label="gini = 0.0\nsamples = 1\nvalue = [1, 0]"] ;
755 -> 757 ;
758 [label="gini = 0.0\nsamples = 2\nvalue = [2, 0]"] ;
754 -> 758 ;
759 [label="X[6] <= 250.0\ngini = 0.499\nsamples = 19\nvalue = [10, 9]"] ;
741 -> 759 ;
760 [label="gini = 0.0\nsamples = 7\nvalue = [7, 0]"] ;
759 -> 760 ;
761 [label="X[38] <= 955.0\ngini = 0.375\nsamples = 12\nvalue = [3, 9]"] ;
759 -> 761 ;
762 [label="gini = 0.0\nsamples = 2\nvalue = [2, 0]"] ;
761 -> 762 ;
763 [label="X[68] <= 90.0\ngini = 0.18\nsamples = 10\nvalue = [1, 9]"] ;
761 -> 763 ;
764 [label="gini = 0.0\nsamples = 9\nvalue = [0, 9]"] ;
763 -> 764 ;
765 [label="gini = 0.0\nsamples = 1\nvalue = [1, 0]"] ;
763 -> 765 ;
766 [label="X[41] <= 360.0\ngini = 0.278\nsamples = 6\nvalue = [1, 5]"] ;
740 -> 766 ;
767 [label="gini = 0.0\nsamples = 5\nvalue = [0, 5]"] ;
766 -> 767 ;
768 [label="gini = 0.0\nsamples = 1\nvalue = [1, 0]"] ;
766 -> 768 ;
769 [label="X[18] <= 20155872.0\ngini = 0.375\nsamples = 12\nvalue = [3, 9]"] ;
739 -> 769 ;
770 [label="gini = 0.0\nsamples = 9\nvalue = [0, 9]"] ;
769 -> 770 ;
771 [label="gini = 0.0\nsamples = 3\nvalue = [3, 0]"] ;
769 -> 771 ;
772 [label="X[37] <= 81.0\ngini = 0.458\nsamples = 93\nvalue = [33, 60]"] ;
706 -> 772 ;
773 [label="X[70] <= 0.5\ngini = 0.367\nsamples = 62\nvalue = [15, 47]"] ;
772 -> 773 ;
774 [label="X[74] <= 75.5\ngini = 0.149\nsamples = 37\nvalue = [3, 34]"] ;
773 -> 774 ;
775 [label="X[1] <= 3402698.5\ngini = 0.057\nsamples = 34\nvalue = [1, 33]"] ;
774 -> 775 ;
776 [label="gini = 0.0\nsamples = 33\nvalue = [0, 33]"] ;
775 -> 776 ;
777 [label="gini = 0.0\nsamples = 1\nvalue = [1, 0]"] ;
775 -> 777 ;
778 [label="X[60] <= 48.5\ngini = 0.444\nsamples = 3\nvalue = [2, 1]"] ;
774 -> 778 ;
779 [label="gini = 0.0\nsamples = 2\nvalue = [2, 0]"] ;
778 -> 779 ;
780 [label="gini = 0.0\nsamples = 1\nvalue = [0, 1]"] ;
778 -> 780 ;
781 [label="X[24] <= 1185.0\ngini = 0.499\nsamples = 25\nvalue = [12, 13]"] ;
773 -> 781 ;
782 [label="X[51] <= 2.5\ngini = 0.219\nsamples = 8\nvalue = [7, 1]"] ;
781 -> 782 ;
783 [label="gini = 0.0\nsamples = 1\nvalue = [0, 1]"] ;
782 -> 783 ;
784 [label="gini = 0.0\nsamples = 7\nvalue = [7, 0]"] ;
782 -> 784 ;
785 [label="X[32] <= 28.5\ngini = 0.415\nsamples = 17\nvalue = [5, 12]"] ;
781 -> 785 ;
786 [label="X[47] <= 3623.0\ngini = 0.245\nsamples = 14\nvalue = [2, 12]"] ;
785 -> 786 ;
787 [label="gini = 0.0\nsamples = 12\nvalue = [0, 12]"] ;
786 -> 787 ;
788 [label="gini = 0.0\nsamples = 2\nvalue = [2, 0]"] ;
786 -> 788 ;
789 [label="gini = 0.0\nsamples = 3\nvalue = [3, 0]"] ;
785 -> 789 ;
790 [label="X[8] <= 0.975\ngini = 0.487\nsamples = 31\nvalue = [18, 13]"] ;
772 -> 790 ;
791 [label="X[72] <= 355.5\ngini = 0.465\nsamples = 19\nvalue = [7, 12]"] ;
790 -> 791 ;
792 [label="X[77] <= 2850.0\ngini = 0.18\nsamples = 10\nvalue = [1, 9]"] ;
791 -> 792 ;
793 [label="gini = 0.0\nsamples = 1\nvalue = [1, 0]"] ;
792 -> 793 ;
794 [label="gini = 0.0\nsamples = 9\nvalue = [0, 9]"] ;
792 -> 794 ;
795 [label="X[8] <= 0.875\ngini = 0.444\nsamples = 9\nvalue = [6, 3]"] ;
791 -> 795 ;
796 [label="gini = 0.0\nsamples = 6\nvalue = [6, 0]"] ;
795 -> 796 ;
797 [label="gini = 0.0\nsamples = 3\nvalue = [0, 3]"] ;
795 -> 797 ;
798 [label="X[41] <= 850.0\ngini = 0.153\nsamples = 12\nvalue = [11, 1]"] ;
790 -> 798 ;
799 [label="gini = 0.0\nsamples = 11\nvalue = [11, 0]"] ;
798 -> 799 ;
800 [label="gini = 0.0\nsamples = 1\nvalue = [0, 1]"] ;
798 -> 800 ;
}